svm_type c_svc
kernel_type linear
nr_class 36
total_sv 500
rho -1.0124916492375995 -1.0965734955376354 -1.1684217799099004 -0.894572602306716 -1.4027393487268325 -0.904062259375792 -1.257102420344235 -1.071159712257468 -1.1978289895601335 -1.1551180310191071 -1.0844954769006225 -1.108794155815132 -1.1851455980616945 -1.3139173116596898 -1.275829689365505 -1.098214133477749 -1.3024531734971359 -1.1577084642274575 -1.058255184673624 -1.1703907563364961 -1.0067323075435148 -1.0698957450070976 -1.235873270902588 -1.0631180782360532 -1.1933895799913254 -1.0050403235813186 -1.2218306749634027 -1.1488429823562365 -1.182696901567905 -1.1497267861565639 -1.0780872859424449 -1.262131871406392 -1.1276470843282376 -1.1179575655252167 -1.0598050924586309 -0.19937938969807698 -0.6793647619282673 0.3814253224368802 -0.3078350862044676 0.5216219209428701 -0.47991213937738425 -0.7476396625371048 0.03237229420806524 0.1204423246502738 -0.731931241840614 -0.23114563491972737 -0.12038849577653955 -0.5740936883926919 -0.9474849003701687 -0.7492868266276517 -0.8656269273336696 -0.13389686726178157 -0.6122611532782181 -0.39584621308930457 -0.08353818106415838 -0.6343190163480916 -0.8068851772317703 -0.5105613765224244 -0.5188256052594294 -0.04425631170815147 -0.7661430049023904 -0.38754499135432663 -0.4770005313711393 -0.6062571010167952 -0.6624600692482221 -0.7260868878961955 -0.8665908508272312 -0.8561394807161542 -0.6671842111367999 -0.24846128861735753 0.4771338087872991 -0.3628367215511845 0.4818548533223597 -0.21820825505592623 -0.6312236556884221 0.2788584445996375 0.21100097575956012 -0.7132433657741386 -0.08316522664123713 0.07276342108388174 -0.3195645626328127 -0.6953383968194949 -0.4403732649868485 -0.5737054109740506 -0.046257763816921524 -0.4016445965716904 -0.12225403412117113 0.1048536784129917 -0.6441089068343542 -0.5713828387562812 -0.2945799142652762 -0.283112227142353 0.13489825289508253 -0.6363267206476245 -0.08290084902709129 -0.23537282768737677 -0.3297276120328687 -0.5788918482503129 -0.6263618024698776 -0.6910664145043187 -0.7596776238004175 -0.5970024489830016 0.7428586300096544 -6.023670875859534E-4 0.7396864607337598 0.10441751977168047 -0.4553267253161475 0.8640214385352416 0.4063418460501119 -0.4320468391279323 0.11932747128403957 0.36346276275190254 -0.011496681266053544 -0.7776613316714733 -0.17533916194601706 -0.6006640217898808 0.23353747549042264 -0.1817109411813982 0.19483135728751128 0.5161215945929631 -0.46457917979356883 -0.44475934498558467 0.12223118808202549 -0.04364766702758326 0.3268080978989928 -0.49447696138111635 0.3083009942705573 0.05305422558386762 -0.16321620945235896 -0.3958167725836022 -0.46717662285564865 -0.5421157676866564 -0.5573577956728712 -0.44445476811456786 -0.7544056316759804 0.0848759155894286 -0.8072204124048697 -0.8722512606972274 -0.31866573001995335 -0.3354567514790695 -0.8509624346117608 -0.4814279345439178 -0.42536432887910386 -0.8021602031733808 -0.8912240175650339 -0.7770550873354708 -0.9660844566670468 -0.4656699466256302 -0.823880508249539 -0.6003774298030565 -0.44246803881799573 -0.8435485754766474 -0.9248184978107603 -0.7918001073481479 -0.7068797462672843 -0.3791850321781296 -0.9812559852292345 -0.6471083999648343 -0.6977563819846253 -0.6987974585264939 -0.8759537730813286 -0.93417156122839 -0.8744181170463053 -0.9437581490265459 -0.9171842241836146 0.8628866258016834 -0.011930892039869318 -0.5196458670329205 0.46672326081874355 0.7038217810422546 -0.6065376047829195 0.2333916320080917 0.40091391219204664 -0.05181882419501017 -0.49373774601345743 -0.2900716924586867 -0.32985310749549135 0.410347770118765 -0.18458987750979372 0.02645118365157768 0.3274581863719984 -0.5171177442583349 -0.3567266097570995 0.024523833910491292 -0.10028505464731195 0.4126901173023269 -0.4695867390845802 0.11610153155320126 -0.009304676018198703 -0.17564824159304604 -0.4576900302376165 -0.5428464291130876 -0.4818619195128155 -0.5668568721629736 -0.4813254675595888 -0.8410436331472352 -0.9173562174563782 -0.26759256530943915 -0.39374025611271 -0.8830031257756288 -0.49288601316711766 -0.5153075111608191 -0.8539391602331516 -1.024335371573645 -0.7871024166144795 -1.0011503937957231 -0.5419640155344799 -0.8844699427659374 -0.5745634819271245 -0.47031261258378426 -0.932397634842934 -0.9832596829553343 -0.7750261185514359 -0.7892245696135237 -0.424201081074186 -1.02092279309701 -0.7211544230932435 -0.77633728447159 -0.7060277113265838 -0.9674062981866712 -1.103204112220273 -0.9237516837480763 -0.9804060923632649 -1.0507016691829223 -0.5257453771761545 0.5516353105754924 0.5234679250272839 -0.536905282217699 0.08327547952330018 0.3684086339532378 -0.06543844370906922 -0.7706314617803037 -0.3076529167643485 -0.648144737192726 0.2396327164063897 -0.32848385265234104 0.028387862534755882 0.480668127567622 -0.5145630850589892 -0.5434690895725243 -0.025852863496615832 -0.10333717215119557 0.29880591613911084 -0.5659153876900878 0.16725523292598785 -0.0674261938567215 -0.2862810522759646 -0.4473809135650875 -0.5789786857975842 -0.559334541948663 -0.6904565596759857 -0.5456159776039159 0.8278359536474561 0.8111643363705004 0.0 0.5961134933924015 0.7073356096911224 0.48955377161007546 0.0 0.3140604813808025 0.23513435025217436 0.6485455334489307 0.3483953803211989 0.49765020362320467 0.6958933957994148 0.0 0.24270419361638437 0.43060924570129694 0.4049052757177526 0.6552405345065281 0.0 0.6468129713985137 0.5245723761880458 0.33480622469887483 0.0 0.0 0.0 0.0 0.0 -0.07338594754313704 -0.7415926724137936 -0.3444854446577237 -0.23147180652742888 -0.5985783277712778 -1.0567584408867385 -0.6603670277795126 -1.016125634072652 -0.2460501179037666 -0.7131068153804062 -0.5024706131204488 -0.12529738247904373 -0.6998602172671201 -0.8613821672765378 -0.6838726584701722 -0.5743079742197099 -0.14829364750620874 -0.8011694084734741 -0.6205169684928709 -0.5532532828603913 -0.8515971539094656 -0.6847864523679597 -0.7315508302198016 -0.8642953568427519 -0.924223467160059 -0.6951557222328113 -0.9302820116122906 -0.33885459553676556 -0.13219793813587924 -0.5169488140883048 -0.7349867016412973 -0.6326894302123485 -0.7163220632254856 -0.34824951319843533 -0.6265432715876469 -0.35359753995251636 -0.17414075578663343 -0.8462671715036428 -0.7194746197582318 -0.4053401901897856 -0.4623884723244609 -0.1996347216700212 -0.8521620283980539 -0.3864405443483957 -0.44621380258217824 -0.507533494819596 -0.7549386344834018 -0.8883958074053491 -0.7933241891693632 -0.8470364549843981 -0.787256927511508 0.6434987105851061 0.7135382097374771 0.4322890752515249 0.0 0.31109994609778474 0.21690181686467155 0.735325968426576 0.33563076014181775 0.49225359800969637 0.6839537070651933 0.0 0.2448712194949453 0.41189294718160624 0.3804745297440757 0.7215089689475785 0.0 0.5928369023064931 0.4780148632420113 0.3249914294876879 0.0 0.0 0.0 0.0 0.0 0.16467465664686562 -0.2108492481889622 -0.6437971523031659 -0.3349351273059762 -0.52229314363796 0.1312721755571448 -0.33699951936248773 0.06775589782509041 0.2712151624855886 -0.6121699724089877 -0.49554506072672055 -0.15342966065041147 -0.14926597568481606 0.3931106093822219 -0.5393920126591291 0.06160269218679234 -0.17007611331222236 -0.2452284901382863 -0.4840273566997739 -0.5822030496474168 -0.5555930641310022 -0.6652502041805365 -0.556092905835033 -0.4509045254708776 -0.6893744140968483 -0.5111246527701037 -0.65913835446708 -0.2608686416716554 -0.5213267093752734 -0.2770987385991303 -0.0020888415937680253 -0.8371440354609885 -0.6128310648160269 -0.33894522406755245 -0.4167277593563592 -0.05706021178889509 -0.9311718087627998 -0.19181548913668395 -0.3398510415509756 -0.42764913409320277 -0.7887132032719374 -0.9110041611200385 -0.740379702017736 -0.7861772462160878 -0.8212923365939506 -0.4970431109668598 -0.17910139239394413 -0.316215469842239 0.3046821702941888 -0.14571264577128673 0.09494208675047311 0.37373982583520776 -0.445476503556208 -0.27215747035165966 0.09271105007977125 -0.040212215509056626 0.3445180142567275 -0.477502454279998 0.23881988138682164 0.01291276665694532 -0.12444252896742514 -0.4284030730849972 -0.48046755677130937 -0.5390702250681472 -0.5757867557466403 -0.44730225196042833 0.33691259955836017 0.4639121249766344 0.5973840275668496 0.5640506108653527 0.9993087559879985 1.0247192329173012 0.0 0.4385936405794098 0.5925619165940021 0.7169661063648418 0.7884623590777187 0.0 0.8864599645311678 0.6043048611721599 0.57658215167877 0.0 0.0 0.0 0.0 0.0 -0.11288842886453107 0.3894047862056256 0.12021697484718108 0.25885684818784355 0.4887362008771398 -0.313436073416145 -0.01850172023544388 0.21358951116473412 0.13795082328491332 0.4686686315143112 -0.3437483147089513 0.4123098287819458 0.17922955046763356 0.008795716385870777 -0.30392655713392663 -0.32008952314403866 -0.4071459063928217 -0.38682483161035314 -0.3310882030129934 0.510664842599004 0.29403362739882044 0.6787015573207246 0.8531074004603543 -0.24420166144523672 0.05722104828061575 0.47170308047079623 0.3487157736418123 0.7041466474664445 -0.2562440440282326 0.7100808724680897 0.3739839364738861 0.23910439501259323 -0.19542061735914484 -0.24617762361653037 -0.28394586514076925 -0.33535319904438937 -0.23129723987036654 -0.40081285453887855 -0.1731859143950481 0.14637322337064548 -0.7992767654769677 -0.5296921915422976 -0.20598632386212262 -0.25356268077814453 -0.004095555620475711 -0.6474081902689008 -0.09100411674787122 -0.22328711797819448 -0.3333810523994493 -0.6421958127568598 -0.7860474534642865 -0.5832830005009004 -0.7125810581826932 -0.654519342538928 0.28745554752954333 0.6406716839517493 -0.3787779179447448 -0.2574751494612351 0.24001747968912007 0.1243688499951685 0.5151455770353909 -0.3742678449645864 0.4145792638540281 0.16689145479662923 0.010977167411337701 -0.2946151695633342 -0.3979062157667901 -0.4380852659473027 -0.5669010443039865 -0.36931381917986295 0.4454772944377114 -0.4773244269916857 -0.5526679339554919 0.021570149553425837 -0.2082752448716298 0.21239219882373878 -0.5225763832573642 0.09864265965046082 -0.06952659702416528 -0.4298185168834015 -0.44346092089812894 -0.5045600679184544 -0.5597687545937791 -0.5918363107604628 -0.49151170990492854 -0.7525686604009112 -0.7613703240847806 -0.3180549033491592 -0.5786214558709242 -0.10862005282166648 -0.8925728993058412 -0.2581681722662853 -0.4162682404329484 -0.6732178224530948 -0.6806601604366933 -0.9066364882322016 -0.6931606398099133 -0.7763685325898159 -0.781889951367396 0.2699596474885417 0.5111601768573082 0.4037520044177859 0.7486764840447244 0.0 0.5534097499973207 0.4361340217336826 0.28332810723903906 0.0 0.0 0.0 0.0 0.0 0.3671763205105903 0.29344781631003014 0.6846407391848206 -0.26979086983395645 0.6170464893380211 0.3329184552236005 0.17018722822451776 -0.22078035164054036 -0.2774757661190546 -0.2997106237215026 -0.4036954979814909 -0.25798045683753074 -0.07948294062057618 0.3185479930763541 -0.5477771335193187 0.23134617399964016 -0.012707380017463481 -0.1398550456968877 -0.41297670288912297 -0.4843880634240846 -0.7800936778590617 -0.7385919794764172 -0.5049707946437937 0.321820842243634 -0.4481408621013506 0.31654756277673535 0.10442025287061614 -0.0881505564902582 -0.39543165866437086 -0.432538449894122 -0.5025394950525544 -0.46683149842496147 -0.4263669983481362 -0.7076438036982802 -0.1509121097681657 -0.2908926991600907 -0.40798689851980297 -0.5848839489420841 -0.7341685490315525 -0.6675780390955747 -0.7977923577364359 -0.6277093299021075 0.6354471857241074 0.4976600484997893 0.33106302587165404 0.0 0.0 0.0 0.0 0.0 -0.2001346071509371 -0.3828279094081355 -0.5483722686207944 -0.5922208823485325 -0.7175856900339561 -0.7560788951666783 -0.5681804915498346 -0.18544996246724516 -0.4473612472929266 -0.49165708744755143 -0.5199490358692902 -0.5334751803634491 -0.469414057472844 -0.29092937655943785 -0.3136015239892775 -0.3222339101086191 -0.33462680800510863 -0.29557364043555723 0.0 0.0 0.0 0.0 0.0 0.0 0.0 0.0 0.0 0.0
label 1 2 3 4 5 6 7 8 9 10 11 12 13 14 15 16 17 18 19 20 21 22 23 24 25 26 27 28 29 30 31 32 33 34 35 36
probA -3.9005488189884394 -6.301193401031822 -1.8024433058725535 -5.981731888542338 -5.334629863074765 -4.605033211821788 -4.3806192849172 -2.73944629439189 -3.405745167591244 -0.5775009602405426 -3.6560551083134794 -5.413855191030881 -2.295318978069224 -3.942061057129907 -2.1458542618145424 -2.1040594937977715 -3.8171119595297798 -4.6094603472359195 -6.441905100870585 -3.5403031852902953 -8.800406355693058 -3.2033437865904277 -2.650306434243844 -5.0064606159656035 -4.959265671135869 -5.178643839409871 -2.280640560890243 -3.4040351391578274 -6.076784989147412 -4.699040722545582 -3.174686955090485 -2.5766783688310393 -2.8457823071972563 -4.065376876635733 -3.2364159368636534 -4.689418034442061 -0.5559220312461737 -3.694988730377722 -4.44663414575628 -3.568855607449231 -2.0655580879399635 2.27764975758541 -2.030471541051766 -3.5341953095365812 2.08331602498449 -4.432311934901395 -2.081883420273391 -2.629966021539813 0.7043307808132271 -0.798405463044401 -0.7133179936754118 -4.03867130280213 -1.375214820347736 -1.6786475967017997 -3.1793304187798324 3.70461061948547 -0.3600729554512267 -2.939092271398867 -4.382250499338066 -4.650236378820051 4.524257241649741 0.4056526062386829 -3.411799843896314 -1.930979982713705 4.547889290014956 3.4233327481885074 1.46982922145231 2.2809583885468943 3.85806238464857 -2.0013331568355817 -6.426590759768449 -4.2941155092364465 -9.818567184357816 -5.991967960329817 5.520950527311684 -4.288359999413318 -1.8846483559109417 6.084051657858705 6.640276365395397 -2.6893817385322336 -2.925139756942957 2.592046451367777 0.4522170142919716 0.8324886618705051 -3.0861387488703627 -1.5351928527249097 -2.057446902109906 -5.505147153324306 3.249696086448015 2.7101512606050435 -3.9231210343583856 0.267367514373981 0.14975038049451603 4.9519467015248475 -1.0068871251780702 -3.5690705568693875 -2.159107410008871 4.170747798830766 4.497470389279136 3.618637763588052 3.198723194368033 4.507648364655115 -3.9677186072375688 -4.380208475368051 -6.902420381375336 2.2804461691632834 4.634789797607616 0.21903022816134643 -5.142525908686048 5.163922137504498 -6.525372649287796 0.4295257515592352 -3.012762178873513 2.458705477674767 4.0668871544438145 3.0818199462524998 -4.8547436257601735 3.9194044601908544 5.508002746476268 -0.7970683561091122 4.568340171395412 3.7265710485205727 -3.1637414327617788 4.554609360264004 -3.6715223902166105 5.733752903793382 3.047619812906973 -1.572261577763621 1.147246665458398 5.937724681718494 5.592138303900528 3.00041790179423 3.3341212538006495 5.249796388549559 -5.222235848569842 -0.4703272530431884 -6.345335278984592 6.872878003927325 -3.657342477947656 -4.504701848798078 6.351132868318722 -4.658808658818308 -1.8083827171343734 -2.906215610098998 2.1325729601662555 3.66383126848134 -2.4131717492758438 -5.648926030186775 -2.174420909915265 -2.5938210130224046 -2.112705081770353 1.4750094662217983 -1.6193195410923182 -3.1666257468001398 -2.8352298992402267 -4.443649293378267 1.2469850076845883 0.09331848398099614 -1.7102165737678845 -3.485215199127055 3.7521211871245863 1.4108994142917384 2.949741520527092 5.705562281439542 2.2502350584761412 -6.688411754130655 -4.350110071730069 5.003228917608621 -4.326628400576029 -4.160623320944443 4.424047997990694 -5.092922637668564 -3.628065681676122 -2.763885531158518 8.817327568106675 6.595837755177333 -6.4954345422864845 -2.900251422658357 -4.977259430360464 -2.8820143019133146 -3.814063738285322 5.272812523117534 -0.4912502158080598 -3.6186811743101797 -3.7129825346680345 -3.672286339229518 6.4058037827175776 -4.785393693011457 -3.9082921513145377 -3.4322263045639954 3.806262945456838 8.315491910554602 4.148720628489306 8.165978194381792 7.476888009726318 -2.626022432351554 2.712776979006016 -4.201595746964614 -3.4297842885854783 1.5882060131738136 -5.4894885261647755 -1.912967221767885 -5.282916634265138 0.013134679590838938 0.26962371360810283 -1.8588779787272744 -5.9731627171864625 -4.89196346654328 -2.912696765233791 -5.637505523068458 0.19969688869800784 -1.0654548777237511 -3.8122359352369264 2.5447211588045366 -6.657727020858224 0.41725909219458035 -1.4684865185672884 -4.309272738656381 -4.907744307478134 0.5437787378448771 0.3196449179964734 0.025000447592065246 1.7524532974392806 0.19373466570663278 4.957402436744822 -3.0057441057238337 -3.387806857071517 5.552408800637082 -5.003495997740696 -1.099702106504858 -2.4878924457685083 2.0907792676962735 4.650548852262204 3.2080025520042383 -4.380193538634 3.7744807091017663 2.406636242297857 1.2996394470487291 5.956256707127139 3.3127325271586967 -2.9360550711064737 -0.5160252484556734 -7.093545080965048 2.38275622394919 1.1408899782029966 -2.268792981938863 1.2324509304725255 5.041923045399232 4.0441630355147336 3.637956876251914 2.402830798187814 6.206176104208064 1.462804112696446 3.6806789714048103 0.6931471784024834 3.436418201026586 4.885397868867801 1.4613796417411293 0.6931471784024834 1.7811880041848895 2.3443913027878054 3.303697283901102 3.634282210173724 3.293457111239955 4.636366086774693 0.6931471784024834 2.2323827594527454 5.844143828278971 2.2514784709569198 3.215466382527575 0.6931471784024834 4.159868048192453 2.6599801123033164 4.47391619309421 0.6931471784024834 0.6931471784024834 0.6931471784024834 0.6931471784024834 0.6931471784024834 -3.966247006167873 2.2509481672505802 -4.212075658799305 -2.7727832370280066 -2.969076292011984 2.1807745563126253 1.3845063611657467 -0.06560874614948214 -4.122751401767381 -2.4914171222419803 2.1940544590704647 -2.9832640061489606 0.9611647827992641 -0.001670876360372012 -2.4208835567319023 -5.376184682125308 -5.624193503757743 2.4979187306782205 2.6612225157603526 -3.1194945067660798 2.880814579420593 1.532952021767452 1.7415504216268243 0.4759427944860155 0.2650782339977059 2.5455885834095997 3.0915921831994337 -4.455636613187707 -2.831585595266178 -2.6253261624021067 4.203809473184436 0.2899511158079175 -3.9770704907469576 -1.501327520656817 1.12264396402671 -3.310165893263614 -3.714423489807766 0.9163991171590834 -2.6718129060799845 -4.016729591841616 -3.744893233217602 -3.5857082263122035 0.5100036589705681 -1.9641561148938542 -3.798692854593109 -5.510259857925927 1.2799015952627506 2.2846767264937515 1.0015185719281643 4.373132008905326 1.8943082531561488 3.211485317074173 2.88621189820455 1.5551158052874372 0.6931471784024834 1.813923327897326 2.473779030022468 2.135528039132112 4.257982273882708 4.5209862488468175 6.404204952442221 0.6931471784024834 2.22633552895651 3.851894634144008 2.6117414105789707 2.3313595321006737 0.6931471784024834 2.6925001823919077 2.947698224533389 4.547338715350672 0.6931471784024834 0.6931471784024834 0.6931471784024834 0.6931471784024834 0.6931471784024834 -2.9119285893435127 -2.825375514384285 2.474568749519453 -3.326467298177217 5.634875957208215 -2.4939436987906656 -4.757504998545957 -3.8106962646739597 -4.834596996086257 5.410817444630792 5.772579015115676 -3.805417506303662 -4.232429201494681 2.1129472806967184 4.827950535229909 -6.367142639948035 -2.526806673582959 -4.537310352319403 4.2904975090801685 6.47740901273519 4.14778175553827 4.4610247061854365 5.228221595634452 -1.9488079245771959 2.1201285336960876 -0.9564258798933526 -1.046931816220221 -4.522782611391371 -1.6824812820428605 -2.702776213915237 -1.3686105656307646 4.065626266841212 -0.9458821179784349 -1.9279925063933607 -4.843505259625474 -3.09861582985227 4.472624210183605 -1.3987642306725017 -3.0481652270357174 -3.6815987105011776 2.4651712358880977 4.453027232161247 2.405190699083847 1.3625684709408472 3.2050068942740544 1.3671539000844504 -0.8860465643343017 -2.0989462402754446 -2.567938989339662 -2.348605575227456 -2.540363614173797 -2.752305207434038 2.2574372890985006 2.3761744467994705 -2.5895950996620085 -1.828759213819556 -2.9628955218142043 1.9699373781850735 -2.385203560212876 -0.5169168615761217 -2.764750560686061 1.6749889947129972 1.5937347620629647 1.5840154103997455 1.4521378201203414 2.4069724036071896 1.542653412369299 1.3885300967574314 4.7915209887704675 1.4969683716996636 2.7127398686684665 1.570786643546182 0.6931471784024834 1.4247037993439693 4.088937816699655 2.2890336552634225 4.018101423017478 0.6931471784024834 2.487221051328799 1.8524252697160806 2.565676926467128 0.6931471784024834 0.6931471784024834 0.6931471784024834 0.6931471784024834 0.6931471784024834 3.3415170830469174 -8.841528697279674 3.2563705290989837 -0.7243016327291705 0.8074918140732616 1.6988869444462311 2.46748644531686 1.9344601084442716 2.562996489228665 -1.2318254904164712 1.6807138992218067 2.8381294001787714 -0.07559983057656901 -7.82158827610272 1.9055167619447537 1.7036256632291982 1.4713000308834852 1.427449730270008 1.7180264905286577 -3.144774444679042 2.9165397005669718 3.0746388974685757 0.9682503531935943 2.1103644064240945 2.4890666113340596 5.107018331934281 4.741514880515347 -4.6802565500267574 2.096390904128854 4.132936473283383 -0.4549066524710424 3.0848253327913286 2.65320391486536 2.236655376112697 1.7374670789085265 1.7771834512619356 2.1756209901978134 -3.733679849954559 -3.127848148761259 -4.754345391580319 6.725652185089724 -1.9071448565764866 -3.0909869371661216 -4.333947832034447 -2.1631333728080855 4.235098055471054 -4.306323041274237 -3.2233938058592932 -3.6829914162900543 3.5646689096453072 3.6615336456224745 4.838661359755307 8.651285048810305 5.478749816047688 -0.2873132437301965 0.9604446078964116 3.237121607567457 2.382497359131076 -0.8948706324381673 -3.5376420198579486 -0.47658037965933414 3.3619011330330597 0.9173917373862696 -1.8499330893081973 -1.9343830840096417 4.710685291197221 3.4183196646755714 2.3622358630657185 2.8074690519453647 3.6067472738790873 -5.15527926035628 2.9173542195678093 4.130091419329122 -2.6214170144793774 5.5591086915942425 -3.229554337759248 4.7995415800298264 3.2406070329763583 -1.7165286662201031 3.990967396872664 3.6919382958372426 2.511743661261182 3.047571698515035 2.602795081516875 7.382483302014808 2.3689333164686945 0.9450814825430253 -2.6294949179808675 -2.7777259060316055 -5.072137005058321 2.2669243073246808 0.632469400941588 -2.6005580188208692 1.2981244817798345 2.3384718321901263 2.1080454166204103 3.16052136206263 2.2571072246814925 2.1224345044830417 1.9441219102507765 8.609344770582613 1.365678766215006 2.2096922101966263 0.6931471784024834 4.887863481104437 4.1803952936422215 4.504433914217512 0.6931471784024834 0.6931471784024834 0.6931471784024834 0.6931471784024834 0.6931471784024834 -4.048613519665537 5.43317417591873 -3.2557076187233367 2.102709470226866 2.1008833037650105 -0.46182378406607194 3.653802908446662 2.472497458645587 1.9788235125196822 1.8949940190483052 1.5562413432049733 2.099529444396195 -0.48674761487872953 -4.641705208065805 4.7709005068859565 -1.4715548553944584 -3.3023459401010014 -4.0135434755007795 4.013394271637313 3.4366830672226896 3.5764244228900552 3.956309361831116 4.240224941058105 0.9810823732075993 2.308055914646039 3.5692391205533323 3.082055708886986 3.7017424118927957 3.6783640224067966 2.2795221362765923 2.2007543585630747 2.699933783508063 1.891969809301185 2.2441452666680477 -4.501199925671929 -2.9194220341200516 -0.9963693376968028 1.926909581580284 1.367781767858589 4.2020048468062905 5.000207670310777 2.2508011698659223 3.3053542820567428 4.4092825066787835 3.845875703104136 0.6931471784024834 0.6931471784024834 0.6931471784024834 0.6931471784024834 0.6931471784024834 -0.8710434439294128 -0.00329636541678924 3.4194674325219934 3.5737639118602744 1.9748766536487612 2.888747460518784 2.7004708753008373 -0.9450805293525651 3.6648734986528795 4.0126891944837935 4.660714412390071 3.3275528765838294 4.072022928997549 4.934910879905 3.578959434505042 4.215483896033451 3.827167586820275 4.48676238640887 0.6931471784024834 0.6931471784024834 0.6931471784024834 0.6931471784024834 0.6931471784024834 0.6931471784024834 0.6931471784024834 0.6931471784024834 0.6931471784024834 0.6931471784024834
probB 0.030303067109042684 2.389251037635779 -2.117614827199429 1.9658656932555556 1.4284342236046834 0.7491900457428958 0.5880617309896036 -2.243790095901596 -0.04851267178343624 -2.3013365595072304 -1.2442006219460842 1.4723570504360282 -1.1070962192163663 -0.2501968488425383 -2.641954373530114 -2.3663582762676683 -0.5383835121539298 0.729084038088292 2.203993595701339 -0.24635994560021107 3.7965688282614414 -1.563678676227035 -1.8600724692878692 0.9257302246443568 0.934332023426286 1.4906406225780833 -2.4897228574333545 -0.44920848483583276 1.7417238521108978 0.6371821475145586 -1.627214544714618 -2.1265589520309987 -1.9458637391524451 -0.7705432218453047 -1.5314826154991406 0.7945751590364554 -1.0131781681081664 0.16180239742907393 0.2546865910870442 -0.28151574940421076 -0.09374864006852261 -4.507904339511998 0.22847819931914903 0.022850977384095878 -4.283063803971403 0.06645250347006681 -0.05825842169290434 -0.08506427716665607 -2.98336026518551 -1.24075122796821 -1.354672837371181 0.13033153413404486 -0.6769384196322512 -0.32615900227191047 0.01604524224911217 -5.833405598603712 -1.6554529804774183 0.05520121254045289 1.2577509504880784 0.19027639820704456 -6.577532863590933 -1.4332843586471313 0.3089532148352754 -0.39369249135931117 -6.708830566280124 -5.56052627110768 -3.7355661948997514 -4.4060056681582385 -5.959131066752143 -0.026087175709028722 -1.3640005889041127 -0.3228888310317549 -4.099690894914 0.0347061926815989 -5.529552059884628 -0.6547882751411004 0.11230190081174234 -5.7874255889935196 0.7621245862865911 -0.10885065196780305 -0.07775215194640507 -3.2490490183285337 -1.1920293087110678 -1.339063176577064 -0.2979249358730057 -0.21508990219581814 -0.04569028959904591 -0.7410567866855642 -3.9496363754887875 -2.133612592964688 -0.3222191721933938 -0.7212924297977168 0.42267280354603926 -5.4290843857871485 -0.06081935986672466 0.20257102252262268 -0.1594442408230807 -4.9197888288108595 -5.024124083692942 -4.271060717938076 -3.5070820674255794 -4.739666665267532 -0.5942961544473574 -0.46292090520625356 -2.51830270277435 0.386038086484803 -4.496019563847568 1.87283143627595 -0.917867007347174 -4.9439401440404165 -2.0112650548628372 1.1019450890648443 -0.12249324238398814 -2.4139032560877185 -3.037145711266086 -1.5126408810945853 -0.5196041363434967 -1.272140014351571 2.3812717151169642 0.4485787433025615 -4.344151419538455 -1.6239838119624244 -0.18218995926697437 -0.06966107256399766 -0.8373579111151537 -5.1029702164593 0.31648535874913436 -0.001450749418069696 -0.4290825855909411 -5.631483738624264 -5.1161828143932935 -3.0511213321871447 -3.2941007289377287 -4.913901522208577 0.6822867980658113 0.5440198667375944 1.4174005279796276 -8.572810309769068 -0.04337261640118519 0.03081224214366647 -8.068370831732997 0.5615100167800606 -0.23004476696085344 0.11849173959266612 -4.206267858104958 -4.963744380405585 -0.18674287298174205 0.36232352396854967 -0.3585530134695664 9.7167436521924E-4 -0.15910686677036076 -3.641565784433877 -0.6690092312739672 -0.1592520254660187 0.12520523947486667 0.3000143709545707 -3.4635074002846253 -1.1679173398545541 -0.5097942500340675 0.29325732525963466 -5.6760970590662065 -3.5608707754812894 -4.949117170270177 -7.438875200046006 -4.368093017994983 -1.7204971980073596 0.18732927266565433 -5.393444183316977 -0.26947559944140226 -0.6298597622203025 -4.819324906833984 0.14364340526195907 0.07464093562884969 -0.06256904083558107 -8.211793325869314 -5.715258104602691 2.5253523909667903 0.09863618461486573 1.115729041786202 0.08363717777654468 -0.08680910761416022 -5.831425286858892 -0.6710262688806282 -0.0013674022461940794 0.5648093998183192 0.06653789384218498 -6.921251481989717 0.7010930003599588 0.5230015295386241 0.3276036015697724 -4.676306715507695 -7.971608387206138 -4.764750408157488 -7.821959112022153 -7.494904454673277 -0.002827071895633573 -5.610576919159975 0.027850738589990244 0.17382751593036172 -4.557554917823979 1.2966185640826604 -0.3460209233689052 1.3650275792563498 -3.015047109907608 -2.834317049254208 -0.9564298623189067 0.9715167644385893 1.4065706725668434 0.032714222578140356 1.4449471779178675 -3.199996635837989 -1.626759476673812 0.38002299344320034 -4.801292114376939 1.299204795497184 -3.4114498798747914 -0.7431176476983438 0.8219999833044778 1.174922639964636 -3.5341126867812207 -3.315900169018062 -3.026902895432138 -4.680682174462506 -3.192570862630221 -5.016049761977241 -0.20070809199612336 -0.3901638562995368 -5.396347532810445 -0.2394085182503541 0.37835120435617414 -0.036757691350151875 -2.55902447581312 -2.779768328697599 -2.177400258949687 -0.5096528046950036 -1.8004249848041445 0.6097165131786383 0.8986349730435077 -5.505118206208794 -2.2480050800203903 -0.28372871696157526 -0.3091713994195833 -1.3347605194985828 -3.1313679671898225 -0.05035664662781301 -0.023727962906385333 -0.8803755755905439 -5.203643084259633 -4.551399894192204 -3.826654023257863 -3.0679319037953103 -5.7241040297959325 4.088972025213709 5.741167175107916 2.391895380739567E-16 4.330020009336739 5.998931639257475 2.7450958690299716 2.391895380739567E-16 1.133971811883728 1.654623078814557 4.4967520909679495 3.2082083485481077 4.109787599014984 5.760126314366565 2.391895380739567E-16 1.5640201500812043 6.657679222138007 2.1859771781866955 4.5554237209716755 2.391895380739567E-16 4.043197507727434 2.8958396757813376 3.7883694961469856 2.391895380739567E-16 2.391895380739567E-16 2.391895380739567E-16 2.391895380739567E-16 2.391895380739567E-16 -1.9876018451976733E-4 -4.811934464024504 0.5148427197425274 -0.04685579083188058 -0.13230505202308648 -4.680797431249227 -3.5835069748852932 -2.2179121649630074 0.2981751666146726 -0.2168054849357712 -2.847633963438894 0.21828012697935545 -3.612780591261908 -2.2737958104626395 -0.28907102308541294 2.044037403440763 1.1622153461660196 -5.039521006122743 -3.490542324452123 0.20644381588919777 -4.378974413482369 -4.165245200883444 -4.365405943040198 -3.1482659142242735 -2.9501735951632213 -5.134736427359041 -5.109483036572753 0.8987345975525031 0.04150352810316596 -0.2083752544315732 -6.2357434488752865 -2.102984763749645 1.047288124839854 -0.1890604405673539 -2.395881874283722 0.17511296606923485 0.053521170248627986 -3.110651334621277 0.18949239584888378 0.2746696368278914 0.6248499599259246 0.39719084274251965 -2.772023433162652 -0.14488328411203574 0.9075958554689776 1.876010501789608 -3.4668892755790544 -4.354726497035204 -3.22303167937656 -6.244492945837869 -4.0620135283007395 4.1586415917467 4.316415156749499 2.8750398639398083 2.391895380739567E-16 1.1570940137792278 1.7951019139083528 3.5642072513727725 3.652672096036439 5.086748036505315 7.213835873451674 2.391895380739567E-16 1.5538865898952634 4.915629595689194 2.4669529880000307 3.776382833396892 2.391895380739567E-16 3.13209797759013 3.1670506188972385 3.8840543645418433 2.391895380739567E-16 2.391895380739567E-16 2.391895380739567E-16 2.391895380739567E-16 2.391895380739567E-16 0.14257283383798589 0.016496133124523308 -3.4691826582045397 0.896254168000189 -4.991990997806662 0.17137259655453035 1.111191071313072 0.2834914662930026 -0.1312336063882274 -6.041103731655176 -4.247123611492495 -0.05992747308009995 1.0201882889955465 0.4919244342746195 -5.726352671735152 1.0592243002896782 -0.04535737931748367 0.9627754028990033 -5.380692943171713 -6.917561649610305 -4.960737228577877 -5.21987200255311 -5.803048606522555 -0.24771083962300336 -3.749921738448219 -0.7340902586181145 -0.7426046812376282 -0.013742961850957787 -0.3317731464544053 -0.1410414809260384 -0.02970651316775421 -5.280382898796772 -0.8048476299728875 -0.21871797622821162 1.2543412223963455 -0.07466194042863238 -5.635247546686095 -0.1633978666970876 0.1159936110908861 0.43011602662567094 -4.095574725992359 -5.40103380101716 -3.8682208752761915 -2.962977010328248 -4.7172976153560855 -2.7193748390142294 -0.4939702031535297 0.15343187154730922 -0.022434715964550746 0.12312256972932405 -0.04451805329363293 0.02779694820598254 -3.4779550032880024 -2.9580021950356254 -0.04464979588405783 0.02936711292873995 -0.020690659260965267 -3.2366896862555268 0.15774822995266402 -0.32486130314165873 0.07932984027435028 -2.954501669871118 -2.9319570665392236 -2.9314970744621642 -2.702817244487727 -3.6232344636391147 0.9703114163573718 0.7118336531689693 5.933576149000896 1.5283720439017376 3.2597905348038627 3.0772440079851684 2.391895380739567E-16 0.7597155320726218 4.930089739847329 1.5960744598607397 5.195547687205883 2.391895380739567E-16 2.700659052000522 2.2620387522234893 1.9740161854539833 2.391895380739567E-16 2.391895380739567E-16 2.391895380739567E-16 2.391895380739567E-16 2.391895380739567E-16 0.3572293211375229 -4.708726796321344 1.264195354759974 0.5465505660718502 1.8734205390103695 -1.0930613212745857 0.04660016824563395 2.4204364530848568 1.0469573857914807 0.5378040501736782 -1.0248805342109837 2.240753697787204 0.5347356876528454 -2.1845132520170973 -1.2202881038551057 -1.0822503535332368 -0.8241683434753804 -0.8363421209764057 -1.0675667199610668 -0.5878942582094505 0.8724210519563782 2.4668246633389046 1.8976288627136946 -1.4868705855059483 -0.10288698499462721 3.75748918889583 1.0036688202090147 -1.4363864239104291 -1.445392815450314 2.221852088735283 0.4106583028370233 0.9087963519699105 -1.989640728760621 -1.5563143820974747 -1.1744159009860513 -1.0874472092841023 -1.5632477509892146 0.5743472130915213 0.16921014811542776 0.19941965020592975 -7.589701081395012 -0.10561412613592557 -0.0015735694309010806 0.977664026203146 -0.06494853182241218 -5.49150317978968 0.704693877168289 0.17911616580013073 0.4332627508871216 -4.899578793237468 -4.810038778193516 -6.024416429854284 -9.603722383778532 -6.490104665761334 0.5209506902654587 1.5018678599610402 -2.8663958621017884 -0.799289289854058 0.34903254966777103 0.24112447170619314 0.7485384981418034 -2.9564691560192498 0.6932819763685948 0.03885502547316815 0.04288718836598839 -4.152150134219044 -2.911831509548164 -2.184862521679452 -2.114349150488859 -3.1317292435051742 -0.541056825450884 -3.7528989498604655 -2.864035445841657 -0.09311210916590966 -3.096999590891815 0.0956747401654843 -5.220393296359734 -0.6514363071616042 -0.15430041758000976 -1.8236377469598022 -4.424987056485928 -3.456994098623027 -3.7795031656439027 -3.3315072191171233 -8.046612308238787 -3.8314181602488175 -1.8786444375836724 -0.2989975480056884 0.2471537835304487 -0.05767490201667683 -3.703968455734818 -0.7605159051800607 -0.09181719431007229 -1.7724440051227943 -3.7644466476484917 -3.4014073701001295 -4.4148925249512265 -3.602743406078531 -3.5228780355534783 1.3224154384306903 9.105534855228125 1.5744663809569215 3.579175981112902 2.391895380739567E-16 4.660093539263702 4.174969895493297 4.015432335616987 2.391895380739567E-16 2.391895380739567E-16 2.391895380739567E-16 2.391895380739567E-16 2.391895380739567E-16 -1.4478250157025083 1.2169658005927553 -0.6629666546673522 -1.4120573978384654 1.7543295961651029 0.402199781492871 1.1534441048243254 -1.7810805179430993 -1.3232558094729598 -1.224623039433013 -0.863861009837386 -1.442346748998192 -0.47090648248899203 -0.08859957682098697 -5.53459949489393 0.12083806838427964 0.19585076760641928 0.949260517612382 -4.967663277038725 -4.412107216975868 -4.446351352991464 -4.895348223257877 -5.0489752621898525 1.5446966100686577 -2.0873729014042084 1.103132494785461 0.8929307307021068 0.10146793648715427 -3.046749916277558 -2.113129982360595 -1.9776564949685878 -2.336481538996058 -1.87979260025597 -3.5850872112136156 0.6590133258502023 0.26743306067243183 -0.47329513177165583 -3.4449099473959928 -2.8883073548486378 -5.398031284411846 -5.882162712904424 -3.635189769569999 3.4472463333623713 4.196156035016139 3.368489585718029 2.391895380739567E-16 2.391895380739567E-16 2.391895380739567E-16 2.391895380739567E-16 2.391895380739567E-16 -0.16780894569760463 -0.44956227893729145 -3.679666778217471 -3.741189622043953 -2.5554385018239336 -2.974324658242832 -3.367634165645927 -0.09047624747775039 -3.7654759271377825 -3.938273122371892 -4.286835035387594 -3.3336456342219867 -4.014975909118277 -4.301529744680596 -3.240217877978649 -3.6597195820855903 -3.3430513197829477 -3.9553508690753696 2.391895380739567E-16 2.391895380739567E-16 2.391895380739567E-16 2.391895380739567E-16 2.391895380739567E-16 2.391895380739567E-16 2.391895380739567E-16 2.391895380739567E-16 2.391895380739567E-16 2.391895380739567E-16
nr_sv 275 17 6 4 16 6 33 5 1 24 16 1 7 10 7 1 2 2 9 3 6 9 1 2 7 3 9 1 5 4 3 1 1 1 1 1
SV
0.0017091622140073919 0.0 2.1725487015843584E-4 0.004805838210374613 0.0 0.0 0.0 0.0 0.004351198496808994 0.0 0.0 0.0 0.0019008437425338297 0.0 0.0 4.944646441076814E-4 0.0 0.0 0.0 0.0 0.0022452482606404134 0.0 0.0 0.0 0.0 0.0 0.0 7.729290362276546E-4 0.0 0.0 0.0 0.0 0.0 0.0 0.0 1:1.0 2:1.0 3:1.0 4:1.0 5:1.0 6:1.0 7:1.0 8:1.0 9:1.0 10:1.0 11:1.0 12:1.0 13:1.0 14:1.0 15:1.0 16:1.0 17:1.0 18:1.0 19:1.0 20:1.0 21:1.0 22:1.0 23:1.0 24:1.0 25:1.0 26:1.0 27:1.0 28:1.0 29:1.0 30:1.0 31:1.0 32:1.0 33:1.0 34:1.0 35:1.0 36:1.0 37:1.0 38:1.0 39:1.0 40:1.0 41:1.0 42:1.0 43:1.0 44:1.0 45:1.0 46:1.0 47:1.0 48:1.0 49:1.0 50:1.0 51:1.0 52:1.0 53:1.0 54:1.0 55:1.0 56:1.0 57:1.0 58:1.0 59:1.0 60:1.0 61:1.0 62:1.0 63:1.0 64:1.0 65:1.0 66:1.0 67:1.0 68:1.0 69:1.0 70:1.0 71:1.0 72:1.0 73:1.0 74:1.0 75:1.0 76:1.0 77:1.0 78:1.0 79:1.0 80:1.0 81:1.0 82:1.0 83:1.0 84:1.0 85:1.0 86:1.0 87:1.0 88:1.0 89:1.0 90:1.0 91:1.0 92:1.0 93:1.0 94:1.0 95:1.0 96:1.0 97:1.0 98:1.0 99:1.0 100:1.0 101:1.0 102:1.0 103:1.0 104:1.0 105:1.0 106:1.0 107:1.0 108:1.0 109:1.0 110:1.0 111:1.0 112:1.0 113:1.0 114:1.0 115:1.0 116:1.0 117:1.0 118:1.0 119:1.0 120:1.0 121:1.0 122:1.0 123:1.0 124:1.0 125:1.0 126:1.0 127:1.0 128:1.0 129:1.0 130:1.0 131:1.0 132:1.0 133:1.0 134:1.0 135:1.0 136:1.0 137:1.0 138:1.0 139:1.0 140:1.0 141:1.0 142:1.0 143:1.0 144:1.0 
4.7571269151034225E-4 0.003119230037957477 0.0 0.0 0.0 0.0 0.0 0.0 0.0 3.2955384663063545E-4 0.0 0.0 0.0 0.0 0.0 0.0 0.0 0.0 0.0 0.0 0.0 0.0 0.0 0.0 0.0 0.0 0.0 0.0 0.0 0.0 0.0 0.0 0.0 0.0 0.0 2:1.0 10:1.0 11:1.0 12:1.0 13:1.0 14:1.0 20:1.0 22:1.0 24:1.0 25:1.0 26:1.0 30:1.0 31:1.0 33:1.0 41:1.0 42:1.0 44:1.0 45:1.0 51:1.0 53:1.0 55:1.0 56:1.0 57:1.0 58:1.0 63:1.0 71:1.0 72:1.0 73:1.0 74:1.0 75:1.0 81:1.0 83:1.0 85:1.0 86:1.0 87:1.0 93:1.0 101:1.0 102:1.0 103:1.0 104:1.0 105:1.0 111:1.0 113:1.0 115:1.0 116:1.0 117:1.0 126:1.0 127:1.0 128:1.0 129:1.0 130:1.0 136:1.0 138:1.0 141:1.0 142:1.0 179:1.0 200:1.0 265:1.0 328:1.0 332:1.0 333:1.0 334:1.0 335:1.0 336:1.0 337:1.0 338:1.0 339:1.0 340:1.0 341:1.0 342:1.0 343:1.0 344:1.0 345:1.0 346:1.0 347:1.0 348:1.0 349:1.0 350:1.0 351:1.0 352:1.0 353:1.0 354:1.0 355:1.0 356:1.0 357:1.0 358:1.0 359:1.0 360:1.0 361:1.0 362:1.0 363:1.0 364:1.0 365:1.0 366:1.0 367:1.0 368:1.0 369:1.0 370:1.0 371:1.0 372:1.0 373:1.0 374:1.0 375:1.0 376:1.0 377:1.0 378:1.0 379:1.0 380:1.0 381:1.0 382:1.0 383:1.0 384:1.0 385:1.0 386:1.0 387:1.0 388:1.0 389:1.0 390:1.0 391:1.0 392:1.0 393:1.0 394:1.0 395:1.0 396:1.0 397:1.0 398:1.0 399:1.0 400:1.0 401:1.0 402:1.0 403:1.0 404:1.0 405:1.0 406:1.0 407:1.0 408:1.0 409:1.0 410:1.0 411:1.0 412:1.0 413:1.0 414:1.0 415:1.0 416:1.0 
0.0 0.0 0.0 0.0 0.0 0.0 0.0 0.0 0.0 0.007709838008127989 0.0 0.0 0.0 0.0 0.0 0.0013147343926329662 0.0 0.0 0.0 0.0 0.0 0.0 0.0023178306528752798 0.0 0.0 6.007228538835707E-5 0.0 0.0 0.0 0.0 0.0 0.0 0.0 0.0 0.0 1:1.0 2:1.0 11:1.0 13:1.0 14:1.0 20:1.0 25:1.0 30:1.0 31:1.0 32:1.0 33:1.0 41:1.0 42:1.0 44:1.0 51:1.0 55:1.0 56:1.0 57:1.0 58:1.0 62:1.0 63:1.0 72:1.0 73:1.0 74:1.0 75:1.0 86:1.0 92:1.0 93:1.0 102:1.0 103:1.0 104:1.0 105:1.0 111:1.0 116:1.0 127:1.0 128:1.0 129:1.0 130:1.0 136:1.0 141:1.0 150:1.0 152:1.0 179:1.0 206:1.0 217:1.0 225:1.0 226:1.0 235:1.0 251:1.0 252:1.0 260:1.0 261:1.0 262:1.0 274:1.0 312:1.0 320:1.0 328:1.0 329:1.0 330:1.0 395:1.0 417:1.0 418:1.0 419:1.0 420:1.0 421:1.0 422:1.0 423:1.0 424:1.0 425:1.0 426:1.0 427:1.0 428:1.0 429:1.0 430:1.0 431:1.0 432:1.0 433:1.0 434:1.0 435:1.0 436:1.0 437:1.0 438:1.0 439:1.0 440:1.0 441:1.0 442:1.0 443:1.0 444:1.0 445:1.0 446:1.0 447:1.0 448:1.0 449:1.0 450:1.0 451:1.0 452:1.0 453:1.0 454:1.0 455:1.0 456:1.0 457:1.0 458:1.0 459:1.0 460:1.0 461:1.0 462:1.0 463:1.0 464:1.0 465:1.0 466:1.0 467:1.0 468:1.0 469:1.0 470:1.0 471:1.0 472:1.0 473:1.0 474:1.0 475:1.0 476:1.0 477:1.0 478:1.0 479:1.0 480:1.0 481:1.0 482:1.0 483:1.0 484:1.0 485:1.0 486:1.0 487:1.0 488:1.0 489:1.0 490:1.0 491:1.0 492:1.0 493:1.0 494:1.0 495:1.0 496:1.0 497:1.0 498:1.0 499:1.0 500:1.0 
0.002721877715100823 0.0 0.0 0.006346649783186482 0.0 0.004883056068220351 0.0016468622073476584 0.0 0.0 0.014157984339361945 0.0 0.0 4.841729250003088E-4 0.001896744945506907 0.0 2.94255547449355E-4 0.0 0.0 6.331700729240142E-4 0.0 0.0 0.0 0.0 0.0029856804286437382 0.0 0.0 0.0 0.0 0.0 0.0 0.0 0.0 0.00147061189781947 0.0 0.0 1:1.0 2:1.0 11:1.0 12:1.0 13:1.0 14:1.0 20:1.0 25:1.0 30:1.0 31:1.0 32:1.0 33:1.0 42:1.0 44:1.0 45:1.0 51:1.0 56:1.0 62:1.0 63:1.0 72:1.0 73:1.0 74:1.0 75:1.0 81:1.0 86:1.0 101:1.0 102:1.0 103:1.0 104:1.0 108:1.0 111:1.0 115:1.0 116:1.0 117:1.0 118:1.0 126:1.0 127:1.0 128:1.0 129:1.0 130:1.0 136:1.0 140:1.0 141:1.0 142:1.0 143:1.0 150:1.0 152:1.0 179:1.0 201:1.0 251:1.0 260:1.0 261:1.0 262:1.0 277:1.0 280:1.0 381:1.0 385:1.0 408:1.0 420:1.0 427:1.0 429:1.0 435:1.0 436:1.0 437:1.0 444:1.0 446:1.0 453:1.0 454:1.0 455:1.0 457:1.0 464:1.0 466:1.0 467:1.0 468:1.0 475:1.0 476:1.0 477:1.0 483:1.0 485:1.0 489:1.0 490:1.0 491:1.0 497:1.0 499:1.0 501:1.0 502:1.0 503:1.0 504:1.0 505:1.0 506:1.0 507:1.0 508:1.0 509:1.0 510:1.0 511:1.0 512:1.0 513:1.0 514:1.0 515:1.0 516:1.0 517:1.0 518:1.0 519:1.0 520:1.0 521:1.0 522:1.0 523:1.0 524:1.0 525:1.0 526:1.0 527:1.0 528:1.0 529:1.0 530:1.0 531:1.0 532:1.0 533:1.0 534:1.0 535:1.0 536:1.0 537:1.0 538:1.0 539:1.0 540:1.0 541:1.0 542:1.0 543:1.0 544:1.0 545:1.0 546:1.0 547:1.0 548:1.0 549:1.0 550:1.0 551:1.0 552:1.0 553:1.0 554:1.0 555:1.0 556:1.0 557:1.0 558:1.0 559:1.0 560:1.0 
0.001850599578854172 0.0032327387529117804 1.4104710286078173E-5 9.284374855841761E-4 0.0 0.0014982691092876566 0.0010598495428800693 7.132650630876345E-6 0.0 8.252807225423731E-4 0.0 0.0 0.0 0.0 0.0 7.507421501697287E-4 0.0 0.0 0.0 0.0 0.0018635142559742571 0.0 8.872926850125465E-5 0.0 0.0 0.0 0.0 0.0 0.0 0.0 0.0 0.0 0.0 0.0 0.0 1:1.0 2:1.0 11:1.0 13:1.0 14:1.0 17:1.0 20:1.0 22:1.0 25:1.0 30:1.0 31:1.0 32:1.0 33:1.0 42:1.0 43:1.0 44:1.0 45:1.0 51:1.0 53:1.0 56:1.0 58:1.0 62:1.0 63:1.0 72:1.0 73:1.0 74:1.0 75:1.0 81:1.0 83:1.0 86:1.0 93:1.0 101:1.0 102:1.0 103:1.0 104:1.0 105:1.0 111:1.0 113:1.0 115:1.0 116:1.0 117:1.0 126:1.0 127:1.0 128:1.0 129:1.0 130:1.0 136:1.0 138:1.0 140:1.0 141:1.0 142:1.0 143:1.0 245:1.0 251:1.0 252:1.0 260:1.0 261:1.0 312:1.0 324:1.0 337:1.0 338:1.0 346:1.0 354:1.0 355:1.0 360:1.0 362:1.0 363:1.0 372:1.0 373:1.0 377:1.0 380:1.0 385:1.0 387:1.0 390:1.0 391:1.0 395:1.0 399:1.0 405:1.0 406:1.0 414:1.0 441:1.0 457:1.0 467:1.0 468:1.0 517:1.0 523:1.0 524:1.0 561:1.0 562:1.0 563:1.0 564:1.0 565:1.0 566:1.0 567:1.0 568:1.0 569:1.0 570:1.0 571:1.0 572:1.0 573:1.0 574:1.0 575:1.0 576:1.0 577:1.0 578:1.0 579:1.0 580:1.0 581:1.0 582:1.0 583:1.0 584:1.0 585:1.0 586:1.0 587:1.0 588:1.0 589:1.0 590:1.0 591:1.0 592:1.0 593:1.0 594:1.0 595:1.0 596:1.0 597:1.0 598:1.0 599:1.0 600:1.0 601:1.0 602:1.0 603:1.0 604:1.0 605:1.0 606:1.0 607:1.0 608:1.0 609:1.0 610:1.0 611:1.0 612:1.0 613:1.0 614:1.0 615:1.0 616:1.0 617:1.0 
0.0 0.0014479231253295957 0.0 0.0 0.0032951747922313752 0.0 0.0 0.0 0.0 0.0 0.0 0.0 0.0 0.0 0.0 0.0 0.0 0.0 0.0 0.0 0.0 0.0 0.0 0.0 0.0 4.2928466815811734E-5 0.0 0.0 0.0 0.0 0.0 0.0 0.0 0.0 0.0 1:1.0 2:1.0 11:1.0 13:1.0 14:1.0 17:1.0 20:1.0 25:1.0 27:1.0 30:1.0 31:1.0 32:1.0 33:1.0 42:1.0 43:1.0 44:1.0 45:1.0 51:1.0 56:1.0 62:1.0 63:1.0 72:1.0 74:1.0 75:1.0 81:1.0 86:1.0 88:1.0 92:1.0 93:1.0 102:1.0 104:1.0 105:1.0 111:1.0 116:1.0 127:1.0 129:1.0 130:1.0 141:1.0 143:1.0 198:1.0 217:1.0 222:1.0 225:1.0 226:1.0 251:1.0 252:1.0 255:1.0 260:1.0 261:1.0 306:1.0 309:1.0 312:1.0 320:1.0 321:1.0 325:1.0 328:1.0 329:1.0 346:1.0 363:1.0 380:1.0 399:1.0 408:1.0 414:1.0 422:1.0 441:1.0 457:1.0 467:1.0 468:1.0 517:1.0 523:1.0 524:1.0 618:1.0 619:1.0 620:1.0 621:1.0 622:1.0 623:1.0 624:1.0 625:1.0 626:1.0 627:1.0 628:1.0 629:1.0 630:1.0 631:1.0 632:1.0 633:1.0 634:1.0 635:1.0 636:1.0 637:1.0 638:1.0 639:1.0 640:1.0 641:1.0 642:1.0 643:1.0 644:1.0 645:1.0 646:1.0 647:1.0 648:1.0 649:1.0 650:1.0 651:1.0 652:1.0 653:1.0 654:1.0 655:1.0 656:1.0 657:1.0 658:1.0 659:1.0 660:1.0 661:1.0 662:1.0 663:1.0 664:1.0 665:1.0 666:1.0 667:1.0 668:1.0 669:1.0 670:1.0 671:1.0 672:1.0 673:1.0 674:1.0 675:1.0 676:1.0 677:1.0 678:1.0 679:1.0 680:1.0 681:1.0 682:1.0 683:1.0 684:1.0 685:1.0 686:1.0 687:1.0 688:1.0 689:1.0 690:1.0 
7.028620958143311E-4 0.0 8.964332562757095E-4 0.0 0.0 0.0 0.0 0.0 6.538155491356448E-4 0.0028071046205644795 0.0 0.0 0.0 0.0 0.0 0.0 0.0 0.0 0.0 0.0 0.0 0.0 0.0 0.0 0.0 0.0 0.0 0.0 0.0 1.6511642810875433E-5 0.0 0.0 0.0 0.0 0.0 1:1.0 2:1.0 10:1.0 11:1.0 12:1.0 13:1.0 14:1.0 20:1.0 24:1.0 25:1.0 26:1.0 30:1.0 31:1.0 32:1.0 33:1.0 41:1.0 42:1.0 44:1.0 45:1.0 51:1.0 55:1.0 56:1.0 57:1.0 62:1.0 63:1.0 71:1.0 72:1.0 73:1.0 74:1.0 75:1.0 81:1.0 85:1.0 86:1.0 87:1.0 92:1.0 93:1.0 101:1.0 102:1.0 103:1.0 104:1.0 105:1.0 111:1.0 115:1.0 116:1.0 117:1.0 126:1.0 127:1.0 129:1.0 136:1.0 140:1.0 141:1.0 142:1.0 179:1.0 185:1.0 204:1.0 220:1.0 223:1.0 240:1.0 255:1.0 258:1.0 275:1.0 279:1.0 280:1.0 291:1.0 306:1.0 309:1.0 321:1.0 325:1.0 400:1.0 408:1.0 422:1.0 441:1.0 570:1.0 594:1.0 640:1.0 657:1.0 658:1.0 749:1.0 750:1.0 751:1.0 752:1.0 753:1.0 754:1.0 755:1.0 756:1.0 757:1.0 758:1.0 759:1.0 760:1.0 761:1.0 762:1.0 763:1.0 764:1.0 765:1.0 766:1.0 767:1.0 768:1.0 769:1.0 770:1.0 771:1.0 772:1.0 773:1.0 774:1.0 775:1.0 776:1.0 777:1.0 778:1.0 779:1.0 780:1.0 781:1.0 782:1.0 783:1.0 784:1.0 785:1.0 786:1.0 787:1.0 788:1.0 789:1.0 790:1.0 791:1.0 792:1.0 793:1.0 794:1.0 795:1.0 796:1.0 797:1.0 798:1.0 799:1.0 800:1.0 801:1.0 802:1.0 803:1.0 804:1.0 805:1.0 806:1.0 807:1.0 808:1.0 809:1.0 810:1.0 811:1.0 812:1.0 813:1.0 814:1.0 815:1.0 
0.0 0.0 0.0 0.0 0.00537707467200407 0.0 0.0 0.0 0.0 0.0 0.0 0.0 0.0 0.0 0.0 0.0 0.0 0.0 0.0 0.0 0.0 0.0 0.0 0.0 0.0 0.0 0.0 5.319840105282645E-5 0.0 0.0 0.0 0.0 0.0 0.0 7.337446303444941E-4 1:1.0 2:1.0 11:1.0 12:1.0 13:1.0 14:1.0 18:1.0 20:1.0 25:1.0 30:1.0 31:1.0 32:1.0 33:1.0 42:1.0 44:1.0 45:1.0 51:1.0 56:1.0 62:1.0 63:1.0 72:1.0 73:1.0 74:1.0 75:1.0 81:1.0 86:1.0 92:1.0 93:1.0 102:1.0 103:1.0 104:1.0 105:1.0 109:1.0 111:1.0 116:1.0 118:1.0 127:1.0 128:1.0 129:1.0 130:1.0 134:1.0 141:1.0 150:1.0 152:1.0 179:1.0 182:1.0 217:1.0 225:1.0 226:1.0 251:1.0 260:1.0 261:1.0 280:1.0 293:1.0 320:1.0 328:1.0 329:1.0 342:1.0 381:1.0 408:1.0 415:1.0 420:1.0 427:1.0 428:1.0 435:1.0 436:1.0 437:1.0 444:1.0 445:1.0 453:1.0 454:1.0 455:1.0 457:1.0 464:1.0 465:1.0 467:1.0 468:1.0 475:1.0 476:1.0 477:1.0 483:1.0 484:1.0 489:1.0 490:1.0 491:1.0 497:1.0 498:1.0 514:1.0 517:1.0 518:1.0 520:1.0 523:1.0 524:1.0 529:1.0 532:1.0 534:1.0 570:1.0 816:1.0 817:1.0 818:1.0 819:1.0 820:1.0 821:1.0 822:1.0 823:1.0 824:1.0 825:1.0 826:1.0 827:1.0 828:1.0 829:1.0 830:1.0 831:1.0 832:1.0 833:1.0 834:1.0 835:1.0 836:1.0 837:1.0 838:1.0 839:1.0 840:1.0 841:1.0 842:1.0 843:1.0 844:1.0 845:1.0 846:1.0 847:1.0 848:1.0 849:1.0 850:1.0 851:1.0 852:1.0 853:1.0 854:1.0 855:1.0 856:1.0 857:1.0 858:1.0 859:1.0 860:1.0 861:1.0 862:1.0 
0.011879682084245223 0.0 0.0 0.0 0.0 0.0 0.0 0.0 0.0 0.0 0.0 0.0 0.0 0.0 0.0 0.003907311402813374 0.0 0.0 0.0 0.0 0.0 0.0 0.0 0.0 0.0 0.0 0.0 0.0 0.0 0.0 0.0 0.0 1.6886587990088897E-4 0.0 0.0 10:1.0 11:1.0 12:1.0 13:1.0 14:1.0 20:1.0 22:1.0 24:1.0 25:1.0 26:1.0 30:1.0 31:1.0 41:1.0 42:1.0 44:1.0 45:1.0 51:1.0 53:1.0 55:1.0 56:1.0 57:1.0 58:1.0 71:1.0 72:1.0 73:1.0 74:1.0 75:1.0 81:1.0 83:1.0 85:1.0 86:1.0 87:1.0 101:1.0 102:1.0 103:1.0 104:1.0 105:1.0 108:1.0 111:1.0 113:1.0 115:1.0 116:1.0 117:1.0 118:1.0 126:1.0 127:1.0 128:1.0 129:1.0 130:1.0 138:1.0 140:1.0 141:1.0 142:1.0 143:1.0 179:1.0 206:1.0 265:1.0 266:1.0 332:1.0 343:1.0 346:1.0 347:1.0 360:1.0 363:1.0 367:1.0 377:1.0 380:1.0 385:1.0 396:1.0 399:1.0 408:1.0 411:1.0 414:1.0 424:1.0 540:1.0 713:1.0 810:1.0 863:1.0 864:1.0 865:1.0 866:1.0 867:1.0 868:1.0 869:1.0 870:1.0 871:1.0 872:1.0 873:1.0 874:1.0 875:1.0 876:1.0 877:1.0 878:1.0 879:1.0 880:1.0 881:1.0 882:1.0 883:1.0 884:1.0 885:1.0 886:1.0 887:1.0 888:1.0 889:1.0 890:1.0 891:1.0 892:1.0 893:1.0 894:1.0 895:1.0 896:1.0 897:1.0 898:1.0 899:1.0 900:1.0 901:1.0 902:1.0 903:1.0 904:1.0 905:1.0 906:1.0 907:1.0 908:1.0 909:1.0 910:1.0 911:1.0 912:1.0 913:1.0 914:1.0 915:1.0 916:1.0 917:1.0 918:1.0 919:1.0 920:1.0 921:1.0 922:1.0 923:1.0 924:1.0 925:1.0 926:1.0 927:1.0 928:1.0 929:1.0 
0.010558654579753614 0.0022023588131191486 0.005985706553829544 0.0 0.0 0.006587292677988724 0.003635487340023811 0.0 0.008677134044062949 3.8471289369957257E-4 0.0 0.0 0.0020733878966213933 0.0033884634144820906 8.504921944599422E-4 9.452434470550392E-4 0.00201060799317254 0.0 0.0 0.0023375801371733748 0.0032081958738250363 0.0 2.2758573820368585E-4 0.00842056239983223 0.0037455581379591037 0.0 0.0 0.0 6.503867547253736E-5 0.0 0.0 0.0 0.0016030492763908315 0.0 0.0 2:1.0 10:1.0 11:1.0 12:1.0 13:1.0 18:1.0 20:1.0 24:1.0 25:1.0 26:1.0 31:1.0 32:1.0 33:1.0 41:1.0 42:1.0 44:1.0 45:1.0 51:1.0 55:1.0 56:1.0 57:1.0 58:1.0 62:1.0 63:1.0 71:1.0 72:1.0 73:1.0 74:1.0 75:1.0 81:1.0 85:1.0 86:1.0 87:1.0 101:1.0 102:1.0 103:1.0 104:1.0 108:1.0 109:1.0 111:1.0 115:1.0 116:1.0 117:1.0 126:1.0 127:1.0 128:1.0 129:1.0 134:1.0 136:1.0 140:1.0 141:1.0 142:1.0 150:1.0 152:1.0 179:1.0 237:1.0 322:1.0 332:1.0 385:1.0 419:1.0 420:1.0 424:1.0 427:1.0 428:1.0 429:1.0 434:1.0 435:1.0 436:1.0 437:1.0 444:1.0 445:1.0 446:1.0 452:1.0 453:1.0 454:1.0 455:1.0 460:1.0 464:1.0 465:1.0 466:1.0 474:1.0 475:1.0 476:1.0 477:1.0 483:1.0 484:1.0 485:1.0 488:1.0 489:1.0 490:1.0 491:1.0 497:1.0 498:1.0 499:1.0 540:1.0 541:1.0 542:1.0 545:1.0 594:1.0 808:1.0 814:1.0 1014:1.0 1015:1.0 1016:1.0 1017:1.0 1018:1.0 1019:1.0 1020:1.0 1021:1.0 1022:1.0 1023:1.0 1024:1.0 1025:1.0 1026:1.0 1027:1.0 1028:1.0 1029:1.0 1030:1.0 1031:1.0 1032:1.0 1033:1.0 1034:1.0 1035:1.0 1036:1.0 1037:1.0 1038:1.0 1039:1.0 1040:1.0 1041:1.0 1042:1.0 1043:1.0 1044:1.0 1045:1.0 1046:1.0 1047:1.0 1048:1.0 1049:1.0 1050:1.0 1051:1.0 1052:1.0 1053:1.0 1054:1.0 1055:1.0 1056:1.0 
0.0 0.0 0.0015619470938934986 0.0 0.0 0.0 3.4015935736922415E-4 0.0 0.0 0.001685081449946335 0.0 0.0 0.0 0.0 0.0 0.0 0.0 0.0 0.0 0.0 0.0 0.0 4.0328997850490154E-5 0.0 0.0 0.0 0.0 0.0 0.0 0.0 0.0 0.0 0.0 0.0 0.0 1:1.0 2:1.0 11:1.0 12:1.0 13:1.0 14:1.0 20:1.0 25:1.0 30:1.0 31:1.0 32:1.0 33:1.0 42:1.0 44:1.0 45:1.0 51:1.0 56:1.0 62:1.0 63:1.0 72:1.0 73:1.0 74:1.0 75:1.0 81:1.0 86:1.0 92:1.0 93:1.0 102:1.0 103:1.0 104:1.0 105:1.0 111:1.0 116:1.0 127:1.0 128:1.0 129:1.0 130:1.0 141:1.0 150:1.0 152:1.0 179:1.0 217:1.0 225:1.0 226:1.0 251:1.0 260:1.0 261:1.0 320:1.0 328:1.0 329:1.0 395:1.0 408:1.0 419:1.0 420:1.0 425:1.0 427:1.0 428:1.0 429:1.0 434:1.0 435:1.0 436:1.0 437:1.0 444:1.0 445:1.0 446:1.0 452:1.0 453:1.0 454:1.0 455:1.0 457:1.0 464:1.0 465:1.0 466:1.0 467:1.0 468:1.0 473:1.0 474:1.0 475:1.0 476:1.0 477:1.0 481:1.0 483:1.0 484:1.0 485:1.0 488:1.0 489:1.0 490:1.0 491:1.0 495:1.0 497:1.0 498:1.0 499:1.0 517:1.0 523:1.0 524:1.0 1018:1.0 1028:1.0 1172:1.0 1173:1.0 1174:1.0 1175:1.0 1176:1.0 1177:1.0 1178:1.0 1179:1.0 1180:1.0 1181:1.0 1182:1.0 1183:1.0 1184:1.0 1185:1.0 1186:1.0 1187:1.0 1188:1.0 1189:1.0 1190:1.0 1191:1.0 1192:1.0 1193:1.0 1194:1.0 1195:1.0 1196:1.0 1197:1.0 1198:1.0 1199:1.0 1200:1.0 1201:1.0 1202:1.0 1203:1.0 1204:1.0 1205:1.0 1206:1.0 1207:1.0 1208:1.0 1209:1.0 1210:1.0 1211:1.0 1212:1.0 1213:1.0 1214:1.0 1215:1.0 1216:1.0 1217:1.0 1218:1.0 
0.0 0.0034748445556488073 0.0 0.0 9.506026167097961E-4 0.0 0.0 0.0 0.0 0.0019136549070398344 0.0010451261631647664 0.0 0.0 0.0 0.0 0.0 0.0 0.0 0.0 0.0 0.0 0.0 0.0 0.0 0.0 0.0 0.0 0.0 0.0 0.0 0.0 0.0 0.0 0.0 0.0 1:1.0 2:1.0 11:1.0 12:1.0 13:1.0 14:1.0 20:1.0 25:1.0 30:1.0 31:1.0 32:1.0 33:1.0 42:1.0 44:1.0 45:1.0 51:1.0 56:1.0 62:1.0 63:1.0 72:1.0 73:1.0 74:1.0 75:1.0 81:1.0 86:1.0 92:1.0 93:1.0 102:1.0 103:1.0 104:1.0 105:1.0 111:1.0 116:1.0 127:1.0 129:1.0 130:1.0 136:1.0 141:1.0 179:1.0 186:1.0 198:1.0 200:1.0 205:1.0 217:1.0 224:1.0 225:1.0 226:1.0 241:1.0 242:1.0 251:1.0 253:1.0 259:1.0 260:1.0 261:1.0 275:1.0 306:1.0 308:1.0 320:1.0 321:1.0 328:1.0 329:1.0 342:1.0 359:1.0 400:1.0 408:1.0 457:1.0 467:1.0 468:1.0 517:1.0 523:1.0 524:1.0 817:1.0 1123:1.0 1325:1.0 1328:1.0 1329:1.0 1330:1.0 1331:1.0 1332:1.0 1333:1.0 1334:1.0 1335:1.0 1336:1.0 1337:1.0 1338:1.0 1339:1.0 1340:1.0 1341:1.0 1342:1.0 1343:1.0 1344:1.0 1345:1.0 1346:1.0 1347:1.0 1348:1.0 1349:1.0 1350:1.0 1351:1.0 1352:1.0 1353:1.0 1354:1.0 1355:1.0 1356:1.0 1357:1.0 1358:1.0 1359:1.0 1360:1.0 1361:1.0 1362:1.0 1363:1.0 1364:1.0 1365:1.0 1366:1.0 1367:1.0 1368:1.0 1369:1.0 1370:1.0 1371:1.0 1372:1.0 1373:1.0 1374:1.0 1375:1.0 1376:1.0 1377:1.0 1378:1.0 1379:1.0 1380:1.0 1381:1.0 1382:1.0 1383:1.0 1384:1.0 1385:1.0 1386:1.0 1387:1.0 1388:1.0 1389:1.0 1390:1.0 1391:1.0 1392:1.0 1393:1.0 1394:1.0 1395:1.0 1396:1.0 1397:1.0 
0.0 8.245348391813546E-4 0.0 0.0 0.003742807422044562 0.0 0.0 0.0 0.0 0.0 0.0 0.0 0.0 0.0 0.0 0.0 0.0 5.625848318139001E-4 0.0 0.0 0.0 0.0 0.0 0.0 0.0 9.05179376573831E-4 0.0 0.0 0.0 0.0 0.0 0.0 0.0 0.0 0.0 1:1.0 2:1.0 11:1.0 13:1.0 14:1.0 17:1.0 20:1.0 25:1.0 30:1.0 31:1.0 32:1.0 33:1.0 42:1.0 43:1.0 44:1.0 45:1.0 51:1.0 56:1.0 58:1.0 62:1.0 63:1.0 72:1.0 74:1.0 75:1.0 81:1.0 86:1.0 92:1.0 93:1.0 102:1.0 103:1.0 104:1.0 105:1.0 111:1.0 116:1.0 127:1.0 129:1.0 130:1.0 133:1.0 141:1.0 186:1.0 205:1.0 206:1.0 217:1.0 224:1.0 225:1.0 226:1.0 241:1.0 251:1.0 252:1.0 259:1.0 260:1.0 261:1.0 312:1.0 320:1.0 321:1.0 328:1.0 329:1.0 330:1.0 347:1.0 408:1.0 425:1.0 441:1.0 457:1.0 467:1.0 468:1.0 479:1.0 481:1.0 495:1.0 517:1.0 523:1.0 524:1.0 591:1.0 655:1.0 660:1.0 812:1.0 845:1.0 850:1.0 1186:1.0 1198:1.0 1338:1.0 1353:1.0 1368:1.0 1384:1.0 1396:1.0 1460:1.0 1461:1.0 1462:1.0 1463:1.0 1464:1.0 1465:1.0 1466:1.0 1467:1.0 1468:1.0 1469:1.0 1470:1.0 1471:1.0 1472:1.0 1473:1.0 1474:1.0 1475:1.0 1476:1.0 1477:1.0 1478:1.0 1479:1.0 1480:1.0 1481:1.0 1482:1.0 1483:1.0 1484:1.0 1485:1.0 1486:1.0 1487:1.0 1488:1.0 1489:1.0 1490:1.0 1491:1.0 1492:1.0 1493:1.0 1494:1.0 1495:1.0 1496:1.0 1497:1.0 1498:1.0 1499:1.0 1500:1.0 1501:1.0 1502:1.0 1503:1.0 1504:1.0 1505:1.0 1506:1.0 1507:1.0 1508:1.0 1509:1.0 1510:1.0 1511:1.0 1512:1.0 1513:1.0 1514:1.0 1515:1.0 1516:1.0 1517:1.0 1518:1.0 1519:1.0 
0.0 0.0 0.0 0.0 0.0 0.0 0.0 0.0 0.0 0.0015855242470646732 7.15390824154621E-4 0.0 0.0 0.0 0.0 0.0 0.0 1.7203215933082576E-5 0.0 0.0 0.0 0.0 0.0 0.0 0.0 0.0 0.0 0.0 0.0 0.0 0.0 0.0 0.0 0.0 0.0 1:1.0 2:1.0 11:1.0 12:1.0 13:1.0 14:1.0 20:1.0 25:1.0 30:1.0 31:1.0 32:1.0 33:1.0 42:1.0 44:1.0 45:1.0 51:1.0 56:1.0 62:1.0 63:1.0 72:1.0 73:1.0 74:1.0 75:1.0 81:1.0 86:1.0 92:1.0 93:1.0 102:1.0 103:1.0 104:1.0 105:1.0 111:1.0 116:1.0 127:1.0 128:1.0 129:1.0 130:1.0 136:1.0 141:1.0 143:1.0 179:1.0 186:1.0 205:1.0 211:1.0 217:1.0 220:1.0 224:1.0 225:1.0 226:1.0 241:1.0 251:1.0 259:1.0 260:1.0 261:1.0 262:1.0 280:1.0 312:1.0 320:1.0 328:1.0 329:1.0 381:1.0 408:1.0 457:1.0 467:1.0 468:1.0 517:1.0 523:1.0 524:1.0 1039:1.0 1047:1.0 1294:1.0 1381:1.0 1393:1.0 1520:1.0 1521:1.0 1522:1.0 1523:1.0 1524:1.0 1525:1.0 1526:1.0 1527:1.0 1528:1.0 1529:1.0 1530:1.0 1531:1.0 1532:1.0 1533:1.0 1534:1.0 1535:1.0 1536:1.0 1537:1.0 1538:1.0 1539:1.0 1540:1.0 1541:1.0 1542:1.0 1543:1.0 1544:1.0 1545:1.0 1546:1.0 1547:1.0 1548:1.0 1549:1.0 1550:1.0 1551:1.0 1552:1.0 1553:1.0 1554:1.0 1555:1.0 1556:1.0 1557:1.0 1558:1.0 1559:1.0 1560:1.0 1561:1.0 1562:1.0 1563:1.0 1564:1.0 1565:1.0 1566:1.0 1567:1.0 1568:1.0 1569:1.0 1570:1.0 1571:1.0 1572:1.0 1573:1.0 1574:1.0 1575:1.0 1576:1.0 1577:1.0 1578:1.0 1579:1.0 1580:1.0 1581:1.0 1582:1.0 1583:1.0 1584:1.0 1585:1.0 1586:1.0 1587:1.0 1588:1.0 1589:1.0 1590:1.0 
0.0 0.0010343392011989377 0.0 6.883642389269095E-4 0.0 0.0031569769980812 0.0 0.0 0.0 0.0 0.0 0.0015884110964329875 0.003550223958989756 0.0031897558537193403 0.0 0.0 0.0 0.0 1.1863832970037464E-4 0.0 0.0 0.0 0.0 0.0 0.0 8.393945012288285E-5 0.0 0.0 0.0031479072243682524 0.0 0.0 0.0 0.0 0.0 0.0 1:1.0 2:1.0 11:1.0 13:1.0 14:1.0 17:1.0 20:1.0 25:1.0 30:1.0 31:1.0 32:1.0 33:1.0 41:1.0 42:1.0 43:1.0 44:1.0 48:1.0 51:1.0 55:1.0 56:1.0 57:1.0 62:1.0 63:1.0 71:1.0 72:1.0 74:1.0 81:1.0 85:1.0 86:1.0 87:1.0 92:1.0 93:1.0 102:1.0 103:1.0 104:1.0 105:1.0 111:1.0 116:1.0 118:1.0 126:1.0 127:1.0 129:1.0 136:1.0 140:1.0 141:1.0 142:1.0 150:1.0 152:1.0 217:1.0 225:1.0 226:1.0 251:1.0 252:1.0 255:1.0 260:1.0 261:1.0 274:1.0 280:1.0 309:1.0 321:1.0 325:1.0 381:1.0 408:1.0 415:1.0 420:1.0 427:1.0 429:1.0 435:1.0 436:1.0 437:1.0 444:1.0 446:1.0 453:1.0 454:1.0 455:1.0 464:1.0 466:1.0 475:1.0 476:1.0 477:1.0 479:1.0 483:1.0 485:1.0 489:1.0 490:1.0 491:1.0 497:1.0 499:1.0 549:1.0 570:1.0 640:1.0 655:1.0 658:1.0 674:1.0 711:1.0 808:1.0 1461:1.0 1480:1.0 1494:1.0 1754:1.0 1765:1.0 1766:1.0 1767:1.0 1768:1.0 1769:1.0 1770:1.0 1771:1.0 1772:1.0 1773:1.0 1774:1.0 1775:1.0 1776:1.0 1777:1.0 1778:1.0 1779:1.0 1780:1.0 1781:1.0 1782:1.0 1783:1.0 1784:1.0 1785:1.0 1786:1.0 1787:1.0 1788:1.0 1789:1.0 1790:1.0 1791:1.0 1792:1.0 1793:1.0 1794:1.0 1795:1.0 1796:1.0 1797:1.0 1798:1.0 1799:1.0 1800:1.0 1801:1.0 1802:1.0 1803:1.0 1804:1.0 1805:1.0 1806:1.0 1807:1.0 1808:1.0 
0.019076115896036146 0.0016165484105394113 0.0 0.0 0.0 0.0 0.0 0.0 0.0 0.0013582591203980124 0.0 0.0 0.0 0.0 0.0 0.0024516265745171246 0.0 0.0 0.0 0.0 0.0 0.0 0.0 0.0 0.0 0.0 0.0 0.0 0.0 0.0 0.0 0.0 0.0 0.0 0.0 10:1.0 11:1.0 12:1.0 13:1.0 14:1.0 20:1.0 22:1.0 24:1.0 25:1.0 26:1.0 30:1.0 31:1.0 41:1.0 42:1.0 44:1.0 45:1.0 51:1.0 53:1.0 55:1.0 56:1.0 57:1.0 71:1.0 72:1.0 73:1.0 74:1.0 75:1.0 81:1.0 83:1.0 85:1.0 86:1.0 87:1.0 101:1.0 102:1.0 103:1.0 104:1.0 105:1.0 108:1.0 111:1.0 113:1.0 115:1.0 116:1.0 117:1.0 126:1.0 127:1.0 128:1.0 129:1.0 130:1.0 138:1.0 140:1.0 141:1.0 142:1.0 179:1.0 187:1.0 227:1.0 265:1.0 266:1.0 332:1.0 336:1.0 337:1.0 338:1.0 343:1.0 346:1.0 353:1.0 354:1.0 355:1.0 360:1.0 363:1.0 367:1.0 371:1.0 372:1.0 373:1.0 377:1.0 379:1.0 380:1.0 385:1.0 389:1.0 390:1.0 391:1.0 396:1.0 399:1.0 404:1.0 405:1.0 406:1.0 408:1.0 411:1.0 414:1.0 424:1.0 540:1.0 570:1.0 594:1.0 713:1.0 810:1.0 814:1.0 863:1.0 864:1.0 865:1.0 866:1.0 871:1.0 877:1.0 878:1.0 879:1.0 884:1.0 886:1.0 891:1.0 892:1.0 893:1.0 894:1.0 895:1.0 900:1.0 906:1.0 907:1.0 908:1.0 909:1.0 914:1.0 920:1.0 926:1.0 927:1.0 1229:1.0 1877:1.0 1878:1.0 1879:1.0 1880:1.0 1881:1.0 1882:1.0 1883:1.0 1884:1.0 1885:1.0 1886:1.0 1887:1.0 1888:1.0 1889:1.0 1890:1.0 1891:1.0 1892:1.0 1893:1.0 1894:1.0 1895:1.0 1896:1.0 1897:1.0 1898:1.0 1899:1.0 1900:1.0 1901:1.0 1902:1.0 
0.0 0.0 0.0 0.0 9.772564492707316E-4 0.0 0.0 0.0 0.0 0.0012762020092226916 0.0 0.0 0.0 0.0 0.0 0.0 0.0014369289864049038 0.0 0.0 0.0 0.0 0.0 4.8065255865370606E-4 0.0 0.0 0.0 0.0 0.0 0.0 0.0 0.0 0.0 0.0 0.0 0.0 1:1.0 2:1.0 11:1.0 12:1.0 13:1.0 14:1.0 20:1.0 25:1.0 30:1.0 31:1.0 32:1.0 33:1.0 42:1.0 44:1.0 45:1.0 49:1.0 51:1.0 56:1.0 62:1.0 63:1.0 72:1.0 73:1.0 74:1.0 75:1.0 79:1.0 81:1.0 86:1.0 92:1.0 93:1.0 102:1.0 104:1.0 105:1.0 111:1.0 116:1.0 127:1.0 129:1.0 130:1.0 141:1.0 150:1.0 152:1.0 179:1.0 211:1.0 217:1.0 220:1.0 225:1.0 226:1.0 251:1.0 260:1.0 261:1.0 320:1.0 321:1.0 328:1.0 329:1.0 408:1.0 419:1.0 420:1.0 427:1.0 428:1.0 429:1.0 434:1.0 435:1.0 436:1.0 437:1.0 441:1.0 444:1.0 445:1.0 446:1.0 452:1.0 453:1.0 454:1.0 455:1.0 457:1.0 464:1.0 465:1.0 466:1.0 467:1.0 468:1.0 474:1.0 475:1.0 476:1.0 477:1.0 483:1.0 484:1.0 485:1.0 488:1.0 489:1.0 490:1.0 491:1.0 497:1.0 498:1.0 499:1.0 517:1.0 523:1.0 524:1.0 591:1.0 672:1.0 728:1.0 743:1.0 927:1.0 1021:1.0 1028:1.0 1050:1.0 1081:1.0 1195:1.0 1289:1.0 1325:1.0 1433:1.0 1595:1.0 1969:1.0 1970:1.0 1971:1.0 1972:1.0 1973:1.0 1974:1.0 1975:1.0 1976:1.0 1977:1.0 1978:1.0 1979:1.0 1980:1.0 1981:1.0 1982:1.0 1983:1.0 1984:1.0 1985:1.0 1986:1.0 1987:1.0 1988:1.0 1989:1.0 1990:1.0 1991:1.0 1992:1.0 1993:1.0 1994:1.0 1995:1.0 1996:1.0 1997:1.0 1998:1.0 1999:1.0 2000:1.0 2001:1.0 2002:1.0 2003:1.0 2004:1.0 
0.008179710272541626 0.0 0.0035860110731649425 3.415248387799921E-4 0.0 0.0 0.0 0.0 0.00809227304628578 0.003299403235146238 0.0 0.0 0.005901062856352708 0.002685124373130186 0.0 0.0 0.0 0.0 0.0 0.004553071692059143 0.0 0.0 0.0 0.007098018873573373 0.0 0.0 3.0459090097303086E-4 0.004793244355689396 0.0 0.0 0.0 0.0 1.0350132585859226E-4 0.0 0.0 1:1.0 10:1.0 11:1.0 12:1.0 13:1.0 14:1.0 20:1.0 24:1.0 25:1.0 26:1.0 30:1.0 31:1.0 32:1.0 41:1.0 42:1.0 44:1.0 45:1.0 51:1.0 55:1.0 56:1.0 57:1.0 62:1.0 71:1.0 72:1.0 73:1.0 74:1.0 75:1.0 81:1.0 85:1.0 86:1.0 87:1.0 93:1.0 101:1.0 102:1.0 103:1.0 104:1.0 105:1.0 108:1.0 111:1.0 115:1.0 116:1.0 117:1.0 126:1.0 127:1.0 128:1.0 129:1.0 130:1.0 140:1.0 141:1.0 142:1.0 150:1.0 152:1.0 179:1.0 266:1.0 385:1.0 408:1.0 420:1.0 424:1.0 427:1.0 429:1.0 435:1.0 436:1.0 437:1.0 444:1.0 446:1.0 453:1.0 454:1.0 455:1.0 464:1.0 466:1.0 475:1.0 476:1.0 477:1.0 483:1.0 485:1.0 489:1.0 490:1.0 491:1.0 497:1.0 499:1.0 503:1.0 510:1.0 515:1.0 522:1.0 530:1.0 536:1.0 543:1.0 550:1.0 553:1.0 559:1.0 713:1.0 810:1.0 863:1.0 865:1.0 878:1.0 886:1.0 892:1.0 894:1.0 906:1.0 908:1.0 1178:1.0 1188:1.0 1200:1.0 1209:1.0 1217:1.0 1596:1.0 1611:1.0 1617:1.0 1624:1.0 1703:1.0 1821:1.0 2063:1.0 2064:1.0 2065:1.0 2066:1.0 2067:1.0 2068:1.0 2069:1.0 2070:1.0 2071:1.0 2072:1.0 2073:1.0 2074:1.0 2075:1.0 2076:1.0 2077:1.0 2078:1.0 2079:1.0 2080:1.0 2081:1.0 2082:1.0 2083:1.0 2084:1.0 2085:1.0 2086:1.0 2087:1.0 2088:1.0 2089:1.0 2090:1.0 2091:1.0 2092:1.0 2093:1.0 2094:1.0 2095:1.0 
0.0 0.0 0.0 0.0 0.0 0.00221485347478553 0.0 0.0 0.0016307255103997337 0.0017742425014279483 0.0 0.0 0.0 0.0 0.0 0.0 0.0 0.0 0.0 0.0 0.0 0.0 0.0 0.0 0.0 0.0 0.0 0.0 4.416020091147725E-4 0.0 0.0 0.0 0.0 0.0 0.0 1:1.0 2:1.0 11:1.0 13:1.0 14:1.0 20:1.0 25:1.0 27:1.0 30:1.0 31:1.0 32:1.0 33:1.0 41:1.0 42:1.0 44:1.0 45:1.0 48:1.0 51:1.0 55:1.0 56:1.0 57:1.0 58:1.0 62:1.0 63:1.0 71:1.0 72:1.0 73:1.0 74:1.0 75:1.0 81:1.0 85:1.0 86:1.0 87:1.0 92:1.0 93:1.0 101:1.0 102:1.0 103:1.0 104:1.0 105:1.0 111:1.0 115:1.0 116:1.0 117:1.0 118:1.0 126:1.0 127:1.0 129:1.0 133:1.0 136:1.0 140:1.0 141:1.0 142:1.0 143:1.0 179:1.0 206:1.0 251:1.0 252:1.0 260:1.0 261:1.0 321:1.0 408:1.0 422:1.0 425:1.0 481:1.0 495:1.0 808:1.0 848:1.0 1039:1.0 1102:1.0 1186:1.0 1198:1.0 1230:1.0 1231:1.0 1244:1.0 1245:1.0 1259:1.0 1260:1.0 1274:1.0 1275:1.0 1287:1.0 1288:1.0 1445:1.0 1542:1.0 1588:1.0 1740:1.0 1750:1.0 1754:1.0 2096:1.0 2097:1.0 2098:1.0 2099:1.0 2100:1.0 2101:1.0 2102:1.0 2103:1.0 2104:1.0 2105:1.0 2106:1.0 2107:1.0 2108:1.0 2109:1.0 2110:1.0 2111:1.0 2112:1.0 2113:1.0 2114:1.0 2115:1.0 2116:1.0 2117:1.0 2118:1.0 2119:1.0 2120:1.0 2121:1.0 2122:1.0 2123:1.0 2124:1.0 2125:1.0 2126:1.0 2127:1.0 2128:1.0 2129:1.0 2130:1.0 2131:1.0 2132:1.0 2133:1.0 2134:1.0 2135:1.0 2136:1.0 2137:1.0 2138:1.0 2139:1.0 2140:1.0 2141:1.0 2142:1.0 2143:1.0 2144:1.0 2145:1.0 2146:1.0 2147:1.0 2148:1.0 2149:1.0 2150:1.0 2151:1.0 
0.0 0.0 0.0 0.004617503941770964 0.0 0.0033644583887592395 7.357357601539863E-4 5.026918782422058E-4 0.0 0.0 0.0 0.0 0.0 0.0 0.0 0.0 0.0 0.0 0.0 0.0 9.35080273880732E-4 0.0 0.0 0.0 0.0 0.0 0.0 0.0 0.0 0.0 0.0 0.0 0.0 0.0 0.0 1:1.0 2:1.0 10:1.0 11:1.0 12:1.0 13:1.0 17:1.0 20:1.0 24:1.0 25:1.0 26:1.0 30:1.0 31:1.0 32:1.0 33:1.0 42:1.0 43:1.0 44:1.0 48:1.0 51:1.0 56:1.0 62:1.0 63:1.0 72:1.0 74:1.0 75:1.0 81:1.0 86:1.0 92:1.0 93:1.0 101:1.0 102:1.0 104:1.0 111:1.0 115:1.0 116:1.0 117:1.0 118:1.0 126:1.0 127:1.0 128:1.0 129:1.0 136:1.0 140:1.0 141:1.0 142:1.0 143:1.0 198:1.0 274:1.0 275:1.0 324:1.0 457:1.0 467:1.0 468:1.0 479:1.0 517:1.0 523:1.0 524:1.0 545:1.0 570:1.0 594:1.0 649:1.0 655:1.0 657:1.0 658:1.0 672:1.0 799:1.0 808:1.0 1017:1.0 1123:1.0 1163:1.0 1294:1.0 1445:1.0 1483:1.0 2152:1.0 2153:1.0 2154:1.0 2155:1.0 2156:1.0 2157:1.0 2158:1.0 2159:1.0 2160:1.0 2161:1.0 2162:1.0 2163:1.0 2164:1.0 2165:1.0 2166:1.0 2167:1.0 2168:1.0 2169:1.0 2170:1.0 2171:1.0 2172:1.0 2173:1.0 2174:1.0 2175:1.0 2176:1.0 2177:1.0 2178:1.0 2179:1.0 2180:1.0 2181:1.0 2182:1.0 2183:1.0 2184:1.0 2185:1.0 2186:1.0 2187:1.0 2188:1.0 2189:1.0 2190:1.0 2191:1.0 2192:1.0 2193:1.0 2194:1.0 2195:1.0 2196:1.0 2197:1.0 2198:1.0 2199:1.0 2200:1.0 2201:1.0 2202:1.0 2203:1.0 2204:1.0 2205:1.0 2206:1.0 2207:1.0 2208:1.0 2209:1.0 2210:1.0 2211:1.0 2212:1.0 2213:1.0 2214:1.0 2215:1.0 2216:1.0 2217:1.0 2218:1.0 2219:1.0 2220:1.0 2221:1.0 
0.001694691046314339 0.0 7.307032819346528E-4 0.003516434308291007 0.0 0.004203314810581623 0.0 3.9575344073134865E-4 6.244243996955552E-4 4.8398185532650323E-4 0.0 0.0 0.0028265028002910364 3.94649382758588E-4 0.0 0.0 0.0 0.0 0.0 0.0 0.002853461662771402 0.0 0.0 0.0 0.0 0.0 0.0 0.0 9.433868944819199E-4 7.79982607639007E-5 0.0 0.0 0.0 0.0 0.0 1:1.0 2:1.0 11:1.0 13:1.0 14:1.0 17:1.0 18:1.0 20:1.0 25:1.0 27:1.0 30:1.0 31:1.0 32:1.0 33:1.0 42:1.0 43:1.0 44:1.0 45:1.0 51:1.0 56:1.0 62:1.0 63:1.0 71:1.0 72:1.0 73:1.0 74:1.0 75:1.0 81:1.0 85:1.0 86:1.0 87:1.0 92:1.0 93:1.0 101:1.0 102:1.0 103:1.0 104:1.0 105:1.0 108:1.0 109:1.0 111:1.0 115:1.0 116:1.0 117:1.0 118:1.0 126:1.0 127:1.0 129:1.0 130:1.0 134:1.0 136:1.0 140:1.0 141:1.0 142:1.0 143:1.0 182:1.0 198:1.0 206:1.0 251:1.0 252:1.0 260:1.0 261:1.0 293:1.0 306:1.0 321:1.0 408:1.0 441:1.0 517:1.0 523:1.0 524:1.0 606:1.0 644:1.0 713:1.0 820:1.0 1230:1.0 1231:1.0 1244:1.0 1245:1.0 1259:1.0 1260:1.0 1274:1.0 1275:1.0 1287:1.0 1288:1.0 1302:1.0 2037:1.0 2222:1.0 2223:1.0 2224:1.0 2225:1.0 2226:1.0 2227:1.0 2228:1.0 2229:1.0 2230:1.0 2231:1.0 2232:1.0 2233:1.0 2234:1.0 2235:1.0 2236:1.0 2237:1.0 2238:1.0 2239:1.0 2240:1.0 2241:1.0 2242:1.0 2243:1.0 2244:1.0 2245:1.0 2246:1.0 2247:1.0 2248:1.0 2249:1.0 2250:1.0 2251:1.0 2252:1.0 2253:1.0 2254:1.0 2255:1.0 2256:1.0 2257:1.0 2258:1.0 2259:1.0 2260:1.0 2261:1.0 2262:1.0 2263:1.0 2264:1.0 2265:1.0 2266:1.0 2267:1.0 2268:1.0 2269:1.0 2270:1.0 2271:1.0 2272:1.0 2273:1.0 2274:1.0 2275:1.0 2276:1.0 2277:1.0 2278:1.0 2279:1.0 
0.0 0.0 0.0 0.0 9.761741498442965E-4 0.0 0.0 0.0 0.0 0.0024726768221920398 0.0 2.9504421106765684E-4 0.0 0.0021931299670681415 0.0 0.0 0.0 0.0019073047681556288 0.0 0.0 0.0 0.0 0.0 0.0 0.0 0.0 0.0 0.0 0.002148626131774797 0.0 0.0 0.0 0.0 0.0 0.0 1:1.0 2:1.0 11:1.0 13:1.0 14:1.0 20:1.0 25:1.0 30:1.0 31:1.0 32:1.0 33:1.0 42:1.0 44:1.0 45:1.0 51:1.0 56:1.0 62:1.0 63:1.0 72:1.0 73:1.0 74:1.0 75:1.0 81:1.0 86:1.0 88:1.0 92:1.0 93:1.0 102:1.0 103:1.0 104:1.0 105:1.0 111:1.0 116:1.0 127:1.0 129:1.0 130:1.0 141:1.0 150:1.0 152:1.0 179:1.0 217:1.0 225:1.0 226:1.0 251:1.0 252:1.0 260:1.0 261:1.0 312:1.0 320:1.0 321:1.0 328:1.0 329:1.0 330:1.0 347:1.0 408:1.0 420:1.0 427:1.0 435:1.0 436:1.0 437:1.0 442:1.0 444:1.0 453:1.0 454:1.0 455:1.0 457:1.0 460:1.0 464:1.0 467:1.0 468:1.0 475:1.0 476:1.0 477:1.0 483:1.0 489:1.0 490:1.0 491:1.0 497:1.0 517:1.0 523:1.0 524:1.0 644:1.0 685:1.0 848:1.0 1039:1.0 1102:1.0 1220:1.0 1542:1.0 1711:1.0 1715:1.0 1848:1.0 1874:1.0 2280:1.0 2281:1.0 2282:1.0 2283:1.0 2284:1.0 2285:1.0 2286:1.0 2287:1.0 2288:1.0 2289:1.0 2290:1.0 2291:1.0 2292:1.0 2293:1.0 2294:1.0 2295:1.0 2296:1.0 2297:1.0 2298:1.0 2299:1.0 2300:1.0 2301:1.0 2302:1.0 2303:1.0 2304:1.0 2305:1.0 2306:1.0 2307:1.0 2308:1.0 2309:1.0 2310:1.0 2311:1.0 2312:1.0 2313:1.0 2314:1.0 2315:1.0 2316:1.0 2317:1.0 2318:1.0 2319:1.0 2320:1.0 2321:1.0 2322:1.0 2323:1.0 2324:1.0 2325:1.0 2326:1.0 2327:1.0 2328:1.0 2329:1.0 2330:1.0 2331:1.0 
0.0 0.0 0.0 0.0 0.003530355747092607 0.0 0.0 0.0 0.0 0.0019286979032806589 0.0 0.0 0.0 1.2973145333764225E-5 0.0 0.0 0.0 8.717634672587869E-4 0.0 0.0 0.0 0.0 0.0 0.0 0.0 0.0 0.0 0.0 0.0 0.0 0.0 0.0 0.0 0.0 3.697506890030897E-4 1:1.0 2:1.0 11:1.0 12:1.0 13:1.0 14:1.0 20:1.0 25:1.0 30:1.0 31:1.0 32:1.0 33:1.0 42:1.0 44:1.0 45:1.0 51:1.0 56:1.0 58:1.0 62:1.0 63:1.0 72:1.0 73:1.0 74:1.0 75:1.0 81:1.0 86:1.0 92:1.0 93:1.0 102:1.0 103:1.0 104:1.0 105:1.0 111:1.0 116:1.0 118:1.0 127:1.0 128:1.0 129:1.0 130:1.0 141:1.0 143:1.0 150:1.0 152:1.0 179:1.0 206:1.0 217:1.0 225:1.0 226:1.0 251:1.0 260:1.0 261:1.0 262:1.0 320:1.0 328:1.0 329:1.0 408:1.0 420:1.0 427:1.0 428:1.0 435:1.0 436:1.0 437:1.0 442:1.0 444:1.0 445:1.0 453:1.0 454:1.0 455:1.0 457:1.0 464:1.0 465:1.0 467:1.0 468:1.0 475:1.0 476:1.0 477:1.0 483:1.0 484:1.0 489:1.0 490:1.0 491:1.0 497:1.0 498:1.0 517:1.0 518:1.0 523:1.0 524:1.0 532:1.0 757:1.0 818:1.0 823:1.0 827:1.0 831:1.0 836:1.0 840:1.0 846:1.0 852:1.0 853:1.0 855:1.0 861:1.0 1206:1.0 1467:1.0 1848:1.0 1874:1.0 2307:1.0 2318:1.0 2328:1.0 2391:1.0 2392:1.0 2393:1.0 2394:1.0 2395:1.0 2396:1.0 2397:1.0 2398:1.0 2399:1.0 2400:1.0 2401:1.0 2402:1.0 2403:1.0 2404:1.0 2405:1.0 2406:1.0 2407:1.0 2408:1.0 2409:1.0 2410:1.0 2411:1.0 2412:1.0 2413:1.0 2414:1.0 2415:1.0 2416:1.0 2417:1.0 2418:1.0 2419:1.0 2420:1.0 2421:1.0 2422:1.0 2423:1.0 2424:1.0 2425:1.0 2426:1.0 2427:1.0 
2.394311552997615E-4 5.616313350084591E-4 0.0 0.0 0.0027369371931953877 0.0 0.0 0.0 0.0 0.0033601658484866638 6.44749187613012E-4 0.0 0.0 0.0 0.0 0.0 0.0 0.003939986129414826 0.0 0.0 0.0 0.0 0.0 0.0 0.0 0.0020931143394736424 0.0 0.0 0.0 0.0 0.0 0.0 0.0 0.0 0.0 1:1.0 2:1.0 11:1.0 13:1.0 14:1.0 20:1.0 25:1.0 30:1.0 31:1.0 32:1.0 33:1.0 42:1.0 43:1.0 44:1.0 45:1.0 51:1.0 56:1.0 62:1.0 63:1.0 72:1.0 74:1.0 75:1.0 81:1.0 86:1.0 92:1.0 93:1.0 102:1.0 104:1.0 105:1.0 111:1.0 116:1.0 127:1.0 128:1.0 129:1.0 130:1.0 136:1.0 141:1.0 217:1.0 225:1.0 226:1.0 251:1.0 252:1.0 260:1.0 261:1.0 275:1.0 291:1.0 320:1.0 328:1.0 329:1.0 347:1.0 422:1.0 441:1.0 457:1.0 460:1.0 467:1.0 468:1.0 517:1.0 523:1.0 524:1.0 546:1.0 574:1.0 594:1.0 644:1.0 655:1.0 672:1.0 740:1.0 888:1.0 1031:1.0 1076:1.0 1090:1.0 1102:1.0 1229:1.0 1395:1.0 1445:1.0 1912:1.0 1913:1.0 1925:1.0 1926:1.0 1940:1.0 1941:1.0 1953:1.0 1954:1.0 1966:1.0 1967:1.0 2097:1.0 2371:1.0 2463:1.0 2464:1.0 2465:1.0 2466:1.0 2467:1.0 2468:1.0 2469:1.0 2470:1.0 2471:1.0 2472:1.0 2473:1.0 2474:1.0 2475:1.0 2476:1.0 2477:1.0 2478:1.0 2479:1.0 2480:1.0 2481:1.0 2482:1.0 2483:1.0 2484:1.0 2485:1.0 2486:1.0 2487:1.0 2488:1.0 2489:1.0 2490:1.0 2491:1.0 2492:1.0 2493:1.0 2494:1.0 2495:1.0 2496:1.0 2497:1.0 2498:1.0 2499:1.0 2500:1.0 2501:1.0 2502:1.0 2503:1.0 2504:1.0 2505:1.0 2506:1.0 2507:1.0 2508:1.0 2509:1.0 2510:1.0 2511:1.0 2512:1.0 2513:1.0 2514:1.0 2515:1.0 2516:1.0 2517:1.0 2518:1.0 2519:1.0 2520:1.0 
0.0 0.0 0.0 0.0 0.0 0.0 0.0 0.0 0.0 0.0018792830896461907 5.211887270321176E-4 0.0 0.0 0.0 0.0 0.0 0.0 0.0 0.0 0.0 0.0 0.0 0.0 0.0 0.0 0.0 0.0 0.0 0.0 0.0 0.0 0.0 0.0 0.0 0.0 1:1.0 2:1.0 11:1.0 12:1.0 13:1.0 14:1.0 20:1.0 25:1.0 30:1.0 31:1.0 32:1.0 33:1.0 42:1.0 44:1.0 45:1.0 51:1.0 56:1.0 62:1.0 63:1.0 72:1.0 73:1.0 74:1.0 75:1.0 81:1.0 86:1.0 92:1.0 93:1.0 102:1.0 103:1.0 104:1.0 105:1.0 111:1.0 116:1.0 127:1.0 129:1.0 130:1.0 136:1.0 141:1.0 179:1.0 217:1.0 225:1.0 226:1.0 251:1.0 260:1.0 261:1.0 320:1.0 321:1.0 328:1.0 329:1.0 408:1.0 457:1.0 467:1.0 468:1.0 507:1.0 517:1.0 523:1.0 524:1.0 534:1.0 1106:1.0 1121:1.0 1138:1.0 1154:1.0 1169:1.0 1417:1.0 1652:1.0 2454:1.0 2574:1.0 2575:1.0 2576:1.0 2577:1.0 2578:1.0 2579:1.0 2580:1.0 2581:1.0 2582:1.0 2583:1.0 2584:1.0 2585:1.0 2586:1.0 2587:1.0 2588:1.0 2589:1.0 2590:1.0 2591:1.0 2592:1.0 2593:1.0 2594:1.0 2595:1.0 2596:1.0 2597:1.0 2598:1.0 2599:1.0 2600:1.0 2601:1.0 2602:1.0 2603:1.0 2604:1.0 2605:1.0 2606:1.0 2607:1.0 2608:1.0 2609:1.0 2610:1.0 2611:1.0 2612:1.0 2613:1.0 2614:1.0 2615:1.0 2616:1.0 2617:1.0 2618:1.0 2619:1.0 2620:1.0 2621:1.0 2622:1.0 2623:1.0 2624:1.0 2625:1.0 2626:1.0 2627:1.0 2628:1.0 2629:1.0 2630:1.0 2631:1.0 2632:1.0 2633:1.0 2634:1.0 2635:1.0 2636:1.0 2637:1.0 2638:1.0 2639:1.0 2640:1.0 2641:1.0 2642:1.0 2643:1.0 2644:1.0 2645:1.0 2646:1.0 2647:1.0 2648:1.0 2649:1.0 2650:1.0 2651:1.0 
0.0 0.0 0.0 0.006861250239509564 0.0 0.010139055435299308 0.0 0.0 0.0 0.0033533187496533434 0.0 0.0 0.003263555425945624 0.0 0.0 0.0 0.0 0.002026448437620256 0.0 0.0 1.9414481717575747E-4 5.016263774489135E-4 0.0 0.0 0.0 0.0 0.0 0.0 0.0 0.0 9.057227592497904E-4 4.205620925427449E-4 0.0 0.0 2.3318826993035864E-4 1:1.0 2:1.0 11:1.0 12:1.0 13:1.0 14:1.0 20:1.0 25:1.0 30:1.0 31:1.0 32:1.0 33:1.0 42:1.0 44:1.0 45:1.0 51:1.0 56:1.0 62:1.0 63:1.0 72:1.0 73:1.0 74:1.0 75:1.0 81:1.0 86:1.0 88:1.0 111:1.0 127:1.0 129:1.0 130:1.0 136:1.0 141:1.0 179:1.0 203:1.0 251:1.0 260:1.0 261:1.0 279:1.0 312:1.0 320:1.0 321:1.0 328:1.0 329:1.0 347:1.0 422:1.0 435:1.0 437:1.0 457:1.0 467:1.0 468:1.0 475:1.0 477:1.0 517:1.0 523:1.0 524:1.0 627:1.0 644:1.0 649:1.0 657:1.0 977:1.0 978:1.0 979:1.0 980:1.0 981:1.0 982:1.0 983:1.0 984:1.0 985:1.0 986:1.0 987:1.0 988:1.0 989:1.0 990:1.0 991:1.0 992:1.0 993:1.0 994:1.0 995:1.0 996:1.0 997:1.0 998:1.0 999:1.0 1000:1.0 1001:1.0 1012:1.0 1028:1.0 1031:1.0 1076:1.0 1165:1.0 1195:1.0 1338:1.0 1353:1.0 1368:1.0 1396:1.0 1684:1.0 1723:1.0 1848:1.0 1874:1.0 2652:1.0 2653:1.0 2654:1.0 2655:1.0 2656:1.0 2657:1.0 2658:1.0 2659:1.0 2660:1.0 2661:1.0 2662:1.0 2663:1.0 2664:1.0 2665:1.0 2666:1.0 2667:1.0 2668:1.0 2669:1.0 2670:1.0 2671:1.0 2672:1.0 2673:1.0 2674:1.0 2675:1.0 2676:1.0 2677:1.0 2678:1.0 2679:1.0 2680:1.0 2681:1.0 2682:1.0 2683:1.0 2684:1.0 2685:1.0 2686:1.0 2687:1.0 2688:1.0 2689:1.0 2690:1.0 2691:1.0 2692:1.0 2693:1.0 2694:1.0 2695:1.0 2696:1.0 2697:1.0 
0.0 0.0 0.0 1.9236683312398562E-4 0.0 0.0 0.0 0.0 0.0 9.016983301366505E-4 0.0 0.0 0.0 0.0 0.0 0.0 0.0 0.0 0.0 0.0 0.0 0.0 0.0 0.0 0.0 0.0 0.0 0.0 0.0 0.0 0.0 0.0 0.0 0.0 0.0 1:1.0 2:1.0 11:1.0 12:1.0 13:1.0 14:1.0 20:1.0 25:1.0 27:1.0 30:1.0 31:1.0 32:1.0 33:1.0 42:1.0 44:1.0 45:1.0 51:1.0 56:1.0 62:1.0 63:1.0 72:1.0 73:1.0 74:1.0 75:1.0 78:1.0 81:1.0 86:1.0 88:1.0 92:1.0 93:1.0 102:1.0 103:1.0 104:1.0 105:1.0 111:1.0 116:1.0 118:1.0 127:1.0 128:1.0 129:1.0 130:1.0 136:1.0 141:1.0 179:1.0 181:1.0 198:1.0 217:1.0 225:1.0 226:1.0 251:1.0 253:1.0 260:1.0 261:1.0 320:1.0 328:1.0 329:1.0 330:1.0 457:1.0 467:1.0 468:1.0 479:1.0 517:1.0 523:1.0 524:1.0 606:1.0 638:1.0 644:1.0 666:1.0 674:1.0 688:1.0 728:1.0 743:1.0 757:1.0 1076:1.0 1163:1.0 1243:1.0 1337:1.0 1350:1.0 1974:1.0 2369:1.0 2388:1.0 2706:1.0 2819:1.0 2820:1.0 2821:1.0 2822:1.0 2823:1.0 2824:1.0 2825:1.0 2826:1.0 2827:1.0 2828:1.0 2829:1.0 2830:1.0 2831:1.0 2832:1.0 2833:1.0 2834:1.0 2835:1.0 2836:1.0 2837:1.0 2838:1.0 2839:1.0 2840:1.0 2841:1.0 2842:1.0 2843:1.0 2844:1.0 2845:1.0 2846:1.0 2847:1.0 2848:1.0 2849:1.0 2850:1.0 2851:1.0 2852:1.0 2853:1.0 2854:1.0 2855:1.0 2856:1.0 2857:1.0 2858:1.0 2859:1.0 2860:1.0 2861:1.0 2862:1.0 2863:1.0 2864:1.0 2865:1.0 2866:1.0 2867:1.0 2868:1.0 2869:1.0 2870:1.0 2871:1.0 2872:1.0 2873:1.0 2874:1.0 2875:1.0 2876:1.0 2877:1.0 2878:1.0 2879:1.0 2880:1.0 
7.59063057414994E-4 0.0010360716872493062 0.0021621489327801153 0.0012232747391366975 0.0 0.0014045262754264092 0.0027362899190728177 0.0 0.008054429758712636 0.0017190966654108417 0.0 0.0032076232032906956 0.0 0.0 5.964325295507931E-4 0.0 0.0011887479430455817 0.0 8.168501892535857E-4 0.006295851137876873 0.0031562699783676566 0.0 0.0017745875421386645 0.0 0.0 0.0012205514509063947 0.0 0.004678579322437346 0.0013345244167035915 0.004070148472450293 0.0 0.0 0.0 1.0358247085660197E-4 0.0 20:1.0 27:1.0 30:1.0 31:1.0 32:1.0 33:1.0 42:1.0 44:1.0 45:1.0 51:1.0 56:1.0 62:1.0 63:1.0 72:1.0 73:1.0 74:1.0 75:1.0 86:1.0 92:1.0 93:1.0 102:1.0 103:1.0 104:1.0 105:1.0 111:1.0 116:1.0 127:1.0 128:1.0 129:1.0 130:1.0 136:1.0 141:1.0 145:1.0 146:1.0 147:1.0 148:1.0 149:1.0 150:1.0 151:1.0 152:1.0 153:1.0 154:1.0 155:1.0 156:1.0 157:1.0 158:1.0 159:1.0 160:1.0 161:1.0 162:1.0 163:1.0 164:1.0 165:1.0 166:1.0 167:1.0 168:1.0 169:1.0 170:1.0 171:1.0 179:1.0 217:1.0 225:1.0 226:1.0 306:1.0 312:1.0 320:1.0 328:1.0 329:1.0 359:1.0 457:1.0 467:1.0 468:1.0 517:1.0 523:1.0 524:1.0 1012:1.0 1084:1.0 1091:1.0 1244:1.0 1245:1.0 1259:1.0 1260:1.0 1274:1.0 1275:1.0 1287:1.0 1288:1.0 1310:1.0 1445:1.0 1508:1.0 1542:1.0 1682:1.0 1703:1.0 1744:1.0 1865:1.0 2445:1.0 2533:1.0 2568:1.0 2881:1.0 2882:1.0 2883:1.0 2884:1.0 2885:1.0 2886:1.0 2887:1.0 2888:1.0 2889:1.0 2890:1.0 2891:1.0 2892:1.0 2893:1.0 2894:1.0 2895:1.0 2896:1.0 2897:1.0 2898:1.0 2899:1.0 2900:1.0 2901:1.0 2902:1.0 2903:1.0 2904:1.0 2905:1.0 2906:1.0 2907:1.0 2908:1.0 2909:1.0 2910:1.0 2911:1.0 2912:1.0 2913:1.0 2914:1.0 2915:1.0 2916:1.0 2917:1.0 2918:1.0 2919:1.0 2920:1.0 2921:1.0 2922:1.0 2923:1.0 2924:1.0 2925:1.0 2926:1.0 2927:1.0 
0.0 0.0 0.0 0.0 0.0 0.0 0.0 0.0 0.0013872582436829965 0.0 0.0 0.0 2.8372237565053117E-4 2.380482607810412E-4 0.0 0.0 0.0 0.0 0.0 0.0 0.0 0.0 0.0 0.006616089659506385 0.0 9.217394238431986E-4 0.0 0.0 0.0 0.0 0.0 0.0 0.0 0.0 0.0 1:1.0 2:1.0 10:1.0 11:1.0 12:1.0 13:1.0 14:1.0 20:1.0 24:1.0 25:1.0 26:1.0 30:1.0 31:1.0 32:1.0 33:1.0 41:1.0 42:1.0 44:1.0 45:1.0 46:1.0 51:1.0 55:1.0 57:1.0 62:1.0 63:1.0 71:1.0 72:1.0 73:1.0 74:1.0 75:1.0 81:1.0 85:1.0 87:1.0 92:1.0 93:1.0 101:1.0 102:1.0 103:1.0 104:1.0 105:1.0 111:1.0 115:1.0 117:1.0 126:1.0 127:1.0 129:1.0 136:1.0 141:1.0 142:1.0 150:1.0 152:1.0 179:1.0 200:1.0 321:1.0 328:1.0 359:1.0 395:1.0 408:1.0 420:1.0 427:1.0 429:1.0 435:1.0 436:1.0 437:1.0 444:1.0 446:1.0 453:1.0 454:1.0 455:1.0 458:1.0 464:1.0 466:1.0 475:1.0 476:1.0 477:1.0 483:1.0 485:1.0 489:1.0 490:1.0 491:1.0 497:1.0 499:1.0 503:1.0 510:1.0 515:1.0 522:1.0 530:1.0 536:1.0 543:1.0 550:1.0 553:1.0 559:1.0 808:1.0 820:1.0 939:1.0 1021:1.0 1047:1.0 1050:1.0 1289:1.0 1433:1.0 1975:1.0 1983:1.0 2699:1.0 2928:1.0 2929:1.0 2930:1.0 2931:1.0 2932:1.0 2933:1.0 2934:1.0 2935:1.0 2936:1.0 2937:1.0 2938:1.0 2939:1.0 2940:1.0 2941:1.0 2942:1.0 2943:1.0 2944:1.0 2945:1.0 2946:1.0 2947:1.0 2948:1.0 2949:1.0 2950:1.0 2951:1.0 2952:1.0 2953:1.0 2954:1.0 2955:1.0 2956:1.0 2957:1.0 2958:1.0 2959:1.0 2960:1.0 2961:1.0 2962:1.0 2963:1.0 2964:1.0 2965:1.0 2966:1.0 2967:1.0 2968:1.0 
0.0 0.002566015525772955 0.0 0.0 0.0 0.003055529497381624 0.0 0.0 0.0 0.0020062613809246556 0.0 0.0012514923186724447 0.01261999597518895 0.0 0.0 0.0 0.0 0.028022414689596625 0.0 0.0 0.0018082977444906167 0.005797419309212699 0.0 0.0 0.0 0.0059087621164396874 0.002074266618531017 0.0 0.0 0.0 0.0014009775883372746 0.001674271581605449 0.0 0.0014935604251514784 0.002732999344915347 1:1.0 2:1.0 10:1.0 11:1.0 13:1.0 20:1.0 24:1.0 25:1.0 26:1.0 30:1.0 31:1.0 32:1.0 33:1.0 42:1.0 44:1.0 45:1.0 51:1.0 56:1.0 58:1.0 62:1.0 63:1.0 72:1.0 74:1.0 75:1.0 78:1.0 81:1.0 86:1.0 111:1.0 127:1.0 128:1.0 129:1.0 130:1.0 136:1.0 141:1.0 150:1.0 152:1.0 179:1.0 206:1.0 252:1.0 312:1.0 320:1.0 328:1.0 329:1.0 347:1.0 420:1.0 427:1.0 429:1.0 435:1.0 436:1.0 437:1.0 444:1.0 446:1.0 453:1.0 454:1.0 455:1.0 457:1.0 464:1.0 466:1.0 467:1.0 468:1.0 475:1.0 477:1.0 489:1.0 490:1.0 491:1.0 497:1.0 499:1.0 517:1.0 523:1.0 524:1.0 655:1.0 820:1.0 955:1.0 977:1.0 978:1.0 979:1.0 980:1.0 981:1.0 982:1.0 983:1.0 984:1.0 985:1.0 986:1.0 987:1.0 988:1.0 989:1.0 990:1.0 991:1.0 992:1.0 993:1.0 994:1.0 995:1.0 996:1.0 997:1.0 998:1.0 999:1.0 1000:1.0 1001:1.0 1012:1.0 1017:1.0 1028:1.0 1102:1.0 1310:1.0 1766:1.0 1771:1.0 1776:1.0 1780:1.0 1786:1.0 1790:1.0 1802:1.0 1807:1.0 1841:1.0 2011:1.0 2022:1.0 2059:1.0 2307:1.0 2388:1.0 3111:1.0 3112:1.0 3113:1.0 3114:1.0 3115:1.0 3116:1.0 3117:1.0 3118:1.0 3119:1.0 3120:1.0 3121:1.0 3122:1.0 3123:1.0 3124:1.0 3125:1.0 3126:1.0 3127:1.0 3128:1.0 3129:1.0 3130:1.0 3131:1.0 3132:1.0 3133:1.0 3134:1.0 3135:1.0 3136:1.0 3137:1.0 
0.0014985027903611278 0.0 0.0 0.006937706880300784 0.0 0.013042117985910309 0.0 0.0 6.006814602806636E-4 0.002180850367545119 0.0 0.0 0.022276990673140706 0.001865216148500768 0.0 0.0 0.0 9.611566305186298E-4 0.001667412220557154 0.0 0.009087405767849112 0.0 0.0 0.0 0.003826978416965187 0.0 0.003004548293146988 0.0019443616826849708 8.986718702053895E-4 0.0 0.003153642228826684 0.0016490939790774013 0.0 0.0 5.018568175783291E-4 1:1.0 2:1.0 11:1.0 12:1.0 13:1.0 14:1.0 20:1.0 25:1.0 30:1.0 31:1.0 32:1.0 33:1.0 41:1.0 42:1.0 44:1.0 45:1.0 51:1.0 55:1.0 57:1.0 62:1.0 63:1.0 71:1.0 72:1.0 73:1.0 74:1.0 75:1.0 81:1.0 85:1.0 87:1.0 88:1.0 111:1.0 126:1.0 127:1.0 128:1.0 129:1.0 130:1.0 136:1.0 140:1.0 142:1.0 179:1.0 186:1.0 200:1.0 205:1.0 241:1.0 251:1.0 259:1.0 260:1.0 261:1.0 312:1.0 347:1.0 359:1.0 442:1.0 475:1.0 477:1.0 644:1.0 658:1.0 785:1.0 977:1.0 978:1.0 979:1.0 980:1.0 981:1.0 982:1.0 983:1.0 984:1.0 985:1.0 986:1.0 987:1.0 988:1.0 989:1.0 990:1.0 991:1.0 992:1.0 993:1.0 994:1.0 995:1.0 996:1.0 997:1.0 998:1.0 999:1.0 1000:1.0 1001:1.0 1012:1.0 1195:1.0 1406:1.0 1420:1.0 1432:1.0 1458:1.0 1480:1.0 1483:1.0 1684:1.0 1848:1.0 1874:1.0 1962:1.0 2276:1.0 2727:1.0 2728:1.0 2735:1.0 2762:1.0 2769:1.0 2771:1.0 2935:1.0 2940:1.0 2945:1.0 2950:1.0 3138:1.0 3139:1.0 3140:1.0 3141:1.0 3142:1.0 3143:1.0 3144:1.0 3145:1.0 3146:1.0 3147:1.0 3148:1.0 3149:1.0 3150:1.0 3151:1.0 3152:1.0 3153:1.0 3154:1.0 3155:1.0 3156:1.0 3157:1.0 3158:1.0 3159:1.0 3160:1.0 3161:1.0 3162:1.0 3163:1.0 3164:1.0 3165:1.0 3166:1.0 3167:1.0 3168:1.0 3169:1.0 3170:1.0 3171:1.0 3172:1.0 3173:1.0 3174:1.0 3175:1.0 3176:1.0 
0.0 0.0 0.0 0.0 0.0013978388911895206 0.0 0.0 0.0 0.0 1.4611220944932545E-4 0.0 0.0 0.0 0.0 0.0 0.0 0.0 0.0 0.0 0.0 0.0 0.0 0.0 0.0013776334957337824 0.0 0.0 0.0 0.0 0.0 0.0 0.0 0.0 0.0 0.0 0.0 1:1.0 2:1.0 11:1.0 12:1.0 13:1.0 14:1.0 20:1.0 25:1.0 30:1.0 31:1.0 32:1.0 33:1.0 42:1.0 44:1.0 45:1.0 51:1.0 56:1.0 62:1.0 63:1.0 72:1.0 73:1.0 74:1.0 75:1.0 81:1.0 86:1.0 88:1.0 92:1.0 93:1.0 102:1.0 103:1.0 104:1.0 105:1.0 111:1.0 116:1.0 127:1.0 128:1.0 129:1.0 130:1.0 141:1.0 150:1.0 152:1.0 179:1.0 201:1.0 217:1.0 225:1.0 226:1.0 251:1.0 260:1.0 261:1.0 277:1.0 312:1.0 320:1.0 328:1.0 329:1.0 330:1.0 347:1.0 408:1.0 420:1.0 427:1.0 429:1.0 435:1.0 436:1.0 437:1.0 444:1.0 446:1.0 453:1.0 454:1.0 455:1.0 457:1.0 464:1.0 466:1.0 467:1.0 468:1.0 475:1.0 476:1.0 477:1.0 483:1.0 485:1.0 489:1.0 490:1.0 491:1.0 497:1.0 499:1.0 503:1.0 508:1.0 510:1.0 515:1.0 517:1.0 522:1.0 523:1.0 524:1.0 530:1.0 536:1.0 543:1.0 548:1.0 550:1.0 553:1.0 557:1.0 559:1.0 589:1.0 644:1.0 939:1.0 1216:1.0 1768:1.0 1855:1.0 2965:1.0 3177:1.0 3178:1.0 3179:1.0 3180:1.0 3181:1.0 3182:1.0 3183:1.0 3184:1.0 3185:1.0 3186:1.0 3187:1.0 3188:1.0 3189:1.0 3190:1.0 3191:1.0 3192:1.0 3193:1.0 3194:1.0 3195:1.0 3196:1.0 3197:1.0 3198:1.0 3199:1.0 3200:1.0 3201:1.0 3202:1.0 3203:1.0 3204:1.0 3205:1.0 3206:1.0 3207:1.0 3208:1.0 3209:1.0 3210:1.0 3211:1.0 3212:1.0 3213:1.0 3214:1.0 
0.0 0.0 0.0 0.0 0.0 0.0 0.0 9.244766105913103E-6 0.0 0.0 0.0 0.0 0.0 0.0 0.0 0.0 0.0 4.6596763897087666E-4 0.0 0.0 0.0 0.0 0.0 0.0 0.0 0.0 0.0 0.0 0.0 0.0 0.0 0.0 0.0 0.0 0.0 1:1.0 2:1.0 11:1.0 13:1.0 14:1.0 20:1.0 25:1.0 30:1.0 31:1.0 32:1.0 33:1.0 42:1.0 44:1.0 45:1.0 51:1.0 56:1.0 62:1.0 63:1.0 72:1.0 74:1.0 75:1.0 81:1.0 86:1.0 88:1.0 92:1.0 93:1.0 102:1.0 104:1.0 105:1.0 111:1.0 116:1.0 118:1.0 127:1.0 128:1.0 129:1.0 130:1.0 136:1.0 141:1.0 143:1.0 179:1.0 181:1.0 217:1.0 220:1.0 225:1.0 226:1.0 251:1.0 252:1.0 260:1.0 261:1.0 262:1.0 275:1.0 280:1.0 291:1.0 320:1.0 328:1.0 329:1.0 342:1.0 422:1.0 457:1.0 467:1.0 468:1.0 479:1.0 517:1.0 523:1.0 524:1.0 655:1.0 672:1.0 817:1.0 1090:1.0 1105:1.0 1106:1.0 1121:1.0 1138:1.0 1154:1.0 1163:1.0 1169:1.0 1588:1.0 1754:1.0 2470:1.0 2505:1.0 2517:1.0 2586:1.0 2602:1.0 2616:1.0 2618:1.0 2635:1.0 2649:1.0 2948:1.0 3084:1.0 3215:1.0 3216:1.0 3217:1.0 3218:1.0 3219:1.0 3220:1.0 3221:1.0 3222:1.0 3223:1.0 3224:1.0 3225:1.0 3226:1.0 3227:1.0 3228:1.0 3229:1.0 3230:1.0 3231:1.0 3232:1.0 3233:1.0 3234:1.0 3235:1.0 3236:1.0 3237:1.0 3238:1.0 3239:1.0 3240:1.0 3241:1.0 3242:1.0 3243:1.0 3244:1.0 3245:1.0 3246:1.0 3247:1.0 3248:1.0 3249:1.0 3250:1.0 3251:1.0 3252:1.0 3253:1.0 3254:1.0 3255:1.0 3256:1.0 3257:1.0 3258:1.0 3259:1.0 3260:1.0 3261:1.0 3262:1.0 3263:1.0 3264:1.0 3265:1.0 3266:1.0 3267:1.0 3268:1.0 3269:1.0 
6.863535294284087E-4 0.0016092172819996739 7.51231450520663E-5 0.0 0.0 0.0 0.0 0.0 0.006121790790313035 0.004291926910121799 0.0 6.474509083072389E-4 0.001702619990849394 0.0 2.9987545269317246E-4 0.0 0.0 0.00318346367639387 0.0 0.005311687855794392 0.007216870920234178 0.0 9.209884120722749E-4 0.0 0.006162928157581079 0.007157505893795593 7.802847831189549E-4 1.0160100973127013E-4 4.270918810239755E-4 0.0029322466312415125 0.0011934222558216676 0.0 0.0 0.0 5.427157431459731E-5 20:1.0 27:1.0 30:1.0 31:1.0 32:1.0 33:1.0 41:1.0 42:1.0 44:1.0 45:1.0 51:1.0 55:1.0 56:1.0 57:1.0 62:1.0 63:1.0 72:1.0 73:1.0 74:1.0 75:1.0 81:1.0 86:1.0 88:1.0 111:1.0 127:1.0 128:1.0 129:1.0 130:1.0 136:1.0 141:1.0 145:1.0 146:1.0 147:1.0 148:1.0 149:1.0 150:1.0 151:1.0 152:1.0 153:1.0 154:1.0 155:1.0 156:1.0 157:1.0 158:1.0 159:1.0 160:1.0 161:1.0 162:1.0 163:1.0 164:1.0 165:1.0 166:1.0 167:1.0 168:1.0 169:1.0 170:1.0 171:1.0 179:1.0 291:1.0 312:1.0 320:1.0 328:1.0 329:1.0 457:1.0 467:1.0 468:1.0 475:1.0 477:1.0 591:1.0 640:1.0 644:1.0 660:1.0 977:1.0 978:1.0 979:1.0 980:1.0 981:1.0 982:1.0 983:1.0 984:1.0 985:1.0 986:1.0 987:1.0 988:1.0 989:1.0 990:1.0 991:1.0 992:1.0 993:1.0 994:1.0 995:1.0 996:1.0 997:1.0 998:1.0 999:1.0 1000:1.0 1001:1.0 1009:1.0 1012:1.0 1286:1.0 1417:1.0 1924:1.0 1925:1.0 1926:1.0 1940:1.0 1941:1.0 1966:1.0 1967:1.0 2307:1.0 2425:1.0 3017:1.0 3270:1.0 3271:1.0 3272:1.0 3273:1.0 3274:1.0 3275:1.0 3276:1.0 3277:1.0 3278:1.0 3279:1.0 3280:1.0 3281:1.0 3282:1.0 3283:1.0 3284:1.0 3285:1.0 3286:1.0 3287:1.0 3288:1.0 3289:1.0 3290:1.0 3291:1.0 3292:1.0 3293:1.0 3294:1.0 3295:1.0 3296:1.0 3297:1.0 3298:1.0 3299:1.0 3300:1.0 3301:1.0 3302:1.0 
0.010446781208491596 0.0019327061744928752 0.012485375869304637 0.0013347834129460263 0.0 0.00525467274862097 0.012250983765827266 3.495156409875991E-4 0.027856317328106683 0.0 0.0 0.016574163640286636 0.002327301674315269 6.516202804397501E-4 0.006459046875416152 0.0 0.01198778990841786 0.0 0.009842840807919424 0.020251470424658646 0.007729392936494879 0.0 0.006367983035590176 0.0011646972719710346 0.005738767234892696 0.0030369175417314215 0.0 0.00928132066521972 0.005116419787539653 0.008570101102668226 0.0 0.0 0.0 0.0 0.0 20:1.0 27:1.0 30:1.0 31:1.0 32:1.0 33:1.0 42:1.0 44:1.0 45:1.0 51:1.0 56:1.0 58:1.0 62:1.0 63:1.0 71:1.0 72:1.0 73:1.0 74:1.0 75:1.0 81:1.0 85:1.0 86:1.0 87:1.0 92:1.0 93:1.0 102:1.0 103:1.0 104:1.0 105:1.0 111:1.0 116:1.0 118:1.0 126:1.0 127:1.0 128:1.0 129:1.0 130:1.0 136:1.0 140:1.0 141:1.0 142:1.0 143:1.0 145:1.0 146:1.0 147:1.0 148:1.0 149:1.0 150:1.0 151:1.0 152:1.0 153:1.0 154:1.0 155:1.0 156:1.0 157:1.0 158:1.0 159:1.0 160:1.0 161:1.0 162:1.0 163:1.0 164:1.0 165:1.0 166:1.0 167:1.0 168:1.0 169:1.0 170:1.0 171:1.0 179:1.0 200:1.0 217:1.0 220:1.0 225:1.0 226:1.0 381:1.0 435:1.0 436:1.0 437:1.0 444:1.0 446:1.0 453:1.0 454:1.0 455:1.0 464:1.0 466:1.0 475:1.0 476:1.0 477:1.0 479:1.0 483:1.0 485:1.0 489:1.0 490:1.0 491:1.0 497:1.0 499:1.0 517:1.0 523:1.0 524:1.0 1118:1.0 1163:1.0 1417:1.0 1494:1.0 1542:1.0 1776:1.0 1780:1.0 1786:1.0 1790:1.0 1796:1.0 1799:1.0 1802:1.0 1807:1.0 1874:1.0 2276:1.0 2307:1.0 2318:1.0 2945:1.0 3329:1.0 3330:1.0 3331:1.0 3332:1.0 3333:1.0 3334:1.0 3335:1.0 3336:1.0 3337:1.0 3338:1.0 3339:1.0 3340:1.0 3341:1.0 3342:1.0 3343:1.0 3344:1.0 3345:1.0 3346:1.0 3347:1.0 3348:1.0 3349:1.0 3350:1.0 3351:1.0 3352:1.0 3353:1.0 3354:1.0 
0.002514836553428792 0.0 6.244064885913906E-4 0.003462697538782662 0.0 8.304325795414787E-4 0.0 0.0 0.0018628559210454778 0.0 0.0 0.0 7.821191634948426E-4 0.0 0.0 0.0 0.0 0.0 0.0 0.0 0.0 0.0 0.0 4.640410105149494E-4 0.0 0.0 0.0 6.112675174465589E-5 0.0 0.0013528202239115933 0.0 0.0 0.001244513867369937 0.0 0.0 10:1.0 11:1.0 12:1.0 13:1.0 14:1.0 20:1.0 24:1.0 25:1.0 26:1.0 27:1.0 30:1.0 31:1.0 41:1.0 42:1.0 44:1.0 45:1.0 51:1.0 55:1.0 56:1.0 57:1.0 71:1.0 72:1.0 73:1.0 74:1.0 75:1.0 81:1.0 85:1.0 86:1.0 87:1.0 88:1.0 101:1.0 102:1.0 103:1.0 104:1.0 105:1.0 108:1.0 111:1.0 115:1.0 116:1.0 117:1.0 118:1.0 126:1.0 127:1.0 128:1.0 129:1.0 130:1.0 136:1.0 140:1.0 141:1.0 142:1.0 179:1.0 181:1.0 185:1.0 186:1.0 204:1.0 205:1.0 223:1.0 224:1.0 240:1.0 241:1.0 258:1.0 259:1.0 265:1.0 266:1.0 332:1.0 367:1.0 385:1.0 408:1.0 424:1.0 461:1.0 540:1.0 567:1.0 589:1.0 604:1.0 614:1.0 644:1.0 713:1.0 863:1.0 874:1.0 892:1.0 903:1.0 917:1.0 957:1.0 1325:1.0 1352:1.0 1418:1.0 3060:1.0 3187:1.0 3205:1.0 3355:1.0 3356:1.0 3357:1.0 3358:1.0 3359:1.0 3360:1.0 3361:1.0 3362:1.0 3363:1.0 3364:1.0 3365:1.0 3366:1.0 3367:1.0 3368:1.0 3369:1.0 3370:1.0 3371:1.0 3372:1.0 3373:1.0 3374:1.0 3375:1.0 3376:1.0 3377:1.0 3378:1.0 3379:1.0 3380:1.0 3381:1.0 3382:1.0 3383:1.0 3384:1.0 3385:1.0 3386:1.0 3387:1.0 3388:1.0 3389:1.0 3390:1.0 3391:1.0 3392:1.0 3393:1.0 3394:1.0 3395:1.0 3396:1.0 3397:1.0 3398:1.0 3399:1.0 3400:1.0 3401:1.0 3402:1.0 3403:1.0 3404:1.0 3405:1.0 3406:1.0 3407:1.0 3408:1.0 3409:1.0 
0.0 0.0020316026531891473 8.668235727894698E-4 0.0 0.0 0.007922478255246307 0.0 0.0 0.0 7.993031955155017E-4 0.0 0.0 0.0 0.0011158523375722554 7.342250062341827E-4 7.14197725816316E-5 9.116950819491669E-4 0.0 0.0013454595660853227 0.0 0.0 0.0 0.003243159685870884 0.0 0.0034861220150117092 7.473209637106281E-4 0.0 0.0038153378744405554 7.370510916582251E-5 0.0 0.0 0.0 0.0 0.0 0.0 1:1.0 2:1.0 11:1.0 13:1.0 14:1.0 18:1.0 20:1.0 25:1.0 30:1.0 31:1.0 32:1.0 33:1.0 41:1.0 42:1.0 43:1.0 44:1.0 48:1.0 51:1.0 55:1.0 56:1.0 57:1.0 62:1.0 63:1.0 71:1.0 72:1.0 74:1.0 81:1.0 85:1.0 86:1.0 87:1.0 92:1.0 93:1.0 102:1.0 103:1.0 104:1.0 105:1.0 109:1.0 111:1.0 116:1.0 126:1.0 127:1.0 129:1.0 134:1.0 136:1.0 140:1.0 141:1.0 142:1.0 150:1.0 152:1.0 182:1.0 217:1.0 225:1.0 226:1.0 227:1.0 251:1.0 252:1.0 260:1.0 261:1.0 274:1.0 291:1.0 293:1.0 306:1.0 321:1.0 408:1.0 419:1.0 420:1.0 422:1.0 424:1.0 427:1.0 428:1.0 429:1.0 434:1.0 435:1.0 436:1.0 437:1.0 444:1.0 445:1.0 446:1.0 452:1.0 453:1.0 454:1.0 455:1.0 464:1.0 465:1.0 466:1.0 474:1.0 475:1.0 476:1.0 477:1.0 483:1.0 484:1.0 485:1.0 488:1.0 489:1.0 490:1.0 491:1.0 497:1.0 498:1.0 499:1.0 638:1.0 655:1.0 711:1.0 808:1.0 810:1.0 814:1.0 845:1.0 850:1.0 1020:1.0 1123:1.0 1369:1.0 1754:1.0 1775:1.0 1785:1.0 1847:1.0 1982:1.0 1991:1.0 2432:1.0 2996:1.0 3605:1.0 3606:1.0 3607:1.0 3608:1.0 3609:1.0 3610:1.0 3611:1.0 3612:1.0 3613:1.0 3614:1.0 3615:1.0 3616:1.0 3617:1.0 3618:1.0 3619:1.0 3620:1.0 3621:1.0 3622:1.0 3623:1.0 3624:1.0 3625:1.0 3626:1.0 3627:1.0 3628:1.0 3629:1.0 3630:1.0 
0.0 0.0 8.56973219002273E-6 0.0 0.0 0.0 0.003374588690371531 0.0 0.0 0.0 0.0 0.0 0.004203462657141729 0.00253548961111198 0.0 0.0 0.0 0.0 0.0 9.547918086090118E-4 0.0 0.0 6.246642951718973E-4 0.0 0.0 0.0 1.4293211489380418E-4 0.0 0.003230784805212138 0.0 0.0 0.0 0.0 0.0 0.0 1:1.0 2:1.0 10:1.0 11:1.0 12:1.0 13:1.0 14:1.0 20:1.0 24:1.0 25:1.0 26:1.0 30:1.0 31:1.0 32:1.0 33:1.0 41:1.0 42:1.0 44:1.0 45:1.0 51:1.0 55:1.0 57:1.0 62:1.0 63:1.0 71:1.0 72:1.0 73:1.0 74:1.0 75:1.0 81:1.0 85:1.0 87:1.0 88:1.0 92:1.0 93:1.0 101:1.0 102:1.0 103:1.0 104:1.0 105:1.0 111:1.0 115:1.0 117:1.0 126:1.0 127:1.0 129:1.0 136:1.0 140:1.0 141:1.0 142:1.0 150:1.0 152:1.0 179:1.0 198:1.0 200:1.0 275:1.0 306:1.0 312:1.0 321:1.0 330:1.0 347:1.0 359:1.0 395:1.0 408:1.0 420:1.0 427:1.0 429:1.0 435:1.0 436:1.0 437:1.0 444:1.0 446:1.0 453:1.0 454:1.0 455:1.0 464:1.0 466:1.0 475:1.0 476:1.0 477:1.0 483:1.0 485:1.0 489:1.0 490:1.0 491:1.0 497:1.0 499:1.0 556:1.0 644:1.0 757:1.0 808:1.0 1018:1.0 1755:1.0 1766:1.0 1771:1.0 1776:1.0 1780:1.0 1786:1.0 1790:1.0 1796:1.0 1799:1.0 1802:1.0 1807:1.0 2940:1.0 2950:1.0 2960:1.0 3631:1.0 3632:1.0 3633:1.0 3634:1.0 3635:1.0 3636:1.0 3637:1.0 3638:1.0 3639:1.0 3640:1.0 3641:1.0 3642:1.0 3643:1.0 3644:1.0 3645:1.0 3646:1.0 3647:1.0 3648:1.0 3649:1.0 3650:1.0 3651:1.0 3652:1.0 3653:1.0 3654:1.0 3655:1.0 3656:1.0 3657:1.0 3658:1.0 3659:1.0 3660:1.0 3661:1.0 3662:1.0 3663:1.0 3664:1.0 3665:1.0 3666:1.0 3667:1.0 3668:1.0 
0.0 0.0010824997648755945 0.0 0.0 0.0 0.0 0.0 0.0 0.0 0.0 0.0 0.0 0.0 0.0 0.0 0.0 0.0 0.0 0.0 0.0 0.0 0.0 0.0 0.0 0.0 0.003540478128645143 0.0 0.0 0.0 0.0 0.0 0.0 0.0 0.0 0.0 1:1.0 2:1.0 11:1.0 13:1.0 14:1.0 18:1.0 25:1.0 30:1.0 31:1.0 32:1.0 33:1.0 42:1.0 43:1.0 44:1.0 45:1.0 56:1.0 62:1.0 63:1.0 72:1.0 74:1.0 75:1.0 86:1.0 92:1.0 93:1.0 109:1.0 116:1.0 118:1.0 127:1.0 129:1.0 130:1.0 134:1.0 141:1.0 143:1.0 150:1.0 152:1.0 181:1.0 182:1.0 217:1.0 225:1.0 226:1.0 251:1.0 252:1.0 260:1.0 261:1.0 262:1.0 280:1.0 293:1.0 320:1.0 321:1.0 328:1.0 329:1.0 381:1.0 408:1.0 420:1.0 427:1.0 435:1.0 436:1.0 437:1.0 444:1.0 453:1.0 454:1.0 455:1.0 457:1.0 464:1.0 467:1.0 468:1.0 475:1.0 476:1.0 477:1.0 483:1.0 489:1.0 490:1.0 491:1.0 497:1.0 517:1.0 523:1.0 524:1.0 545:1.0 649:1.0 655:1.0 657:1.0 672:1.0 757:1.0 820:1.0 850:1.0 1090:1.0 1149:1.0 1302:1.0 1310:1.0 1664:1.0 1670:1.0 1688:1.0 1692:1.0 1693:1.0 1699:1.0 1705:1.0 1706:1.0 1712:1.0 1717:1.0 1718:1.0 1721:1.0 1726:1.0 1727:1.0 2706:1.0 3411:1.0 3669:1.0 3670:1.0 3671:1.0 3672:1.0 3673:1.0 3674:1.0 3675:1.0 3676:1.0 3677:1.0 3678:1.0 3679:1.0 3680:1.0 3681:1.0 3682:1.0 3683:1.0 3684:1.0 3685:1.0 3686:1.0 3687:1.0 3688:1.0 3689:1.0 3690:1.0 3691:1.0 3692:1.0 3693:1.0 3694:1.0 3695:1.0 3696:1.0 3697:1.0 3698:1.0 3699:1.0 3700:1.0 3701:1.0 3702:1.0 3703:1.0 3704:1.0 3705:1.0 3706:1.0 3707:1.0 
0.0 0.0 0.0 0.0028495275712327496 0.0 0.016075301221500662 0.0 0.0 0.0 0.0 0.0 0.0 0.0 0.0 0.0 0.0 0.0 0.0 0.0 0.0 0.0 0.0 0.0 6.07671578874764E-4 0.0 0.004098676586349456 0.0 0.0 0.0 0.0 0.0 0.0 0.0 0.0 0.0 1:1.0 2:1.0 11:1.0 12:1.0 13:1.0 14:1.0 20:1.0 25:1.0 30:1.0 31:1.0 32:1.0 33:1.0 41:1.0 42:1.0 43:1.0 44:1.0 45:1.0 48:1.0 51:1.0 55:1.0 56:1.0 57:1.0 62:1.0 63:1.0 71:1.0 72:1.0 74:1.0 75:1.0 81:1.0 85:1.0 86:1.0 87:1.0 92:1.0 93:1.0 102:1.0 103:1.0 104:1.0 105:1.0 108:1.0 111:1.0 116:1.0 126:1.0 127:1.0 129:1.0 130:1.0 140:1.0 141:1.0 142:1.0 150:1.0 152:1.0 217:1.0 225:1.0 226:1.0 251:1.0 260:1.0 261:1.0 291:1.0 321:1.0 408:1.0 420:1.0 424:1.0 427:1.0 429:1.0 435:1.0 436:1.0 437:1.0 444:1.0 446:1.0 453:1.0 454:1.0 455:1.0 464:1.0 466:1.0 475:1.0 476:1.0 477:1.0 483:1.0 485:1.0 489:1.0 490:1.0 491:1.0 497:1.0 499:1.0 503:1.0 510:1.0 515:1.0 522:1.0 530:1.0 536:1.0 543:1.0 550:1.0 553:1.0 559:1.0 638:1.0 655:1.0 1018:1.0 1021:1.0 1047:1.0 1050:1.0 1289:1.0 1433:1.0 1596:1.0 1617:1.0 1624:1.0 1703:1.0 1754:1.0 1805:1.0 1821:1.0 1983:1.0 2064:1.0 2067:1.0 2069:1.0 2071:1.0 2076:1.0 2079:1.0 2083:1.0 2090:1.0 2091:1.0 2991:1.0 3708:1.0 3709:1.0 3724:1.0 3725:1.0 3726:1.0 3727:1.0 3728:1.0 3732:1.0 3733:1.0 3734:1.0 3735:1.0 3736:1.0 3737:1.0 3738:1.0 3739:1.0 3740:1.0 3741:1.0 3742:1.0 3743:1.0 3744:1.0 3745:1.0 3746:1.0 3747:1.0 3748:1.0 3749:1.0 
0.0021295153786600545 0.0 0.0 4.304439064208736E-5 0.0 4.662133167702913E-4 0.0 0.0 0.0018458418634501267 0.0 0.0 0.0 0.0 0.0015076937140507468 0.0 0.005824082727885911 0.0 0.0 0.0 9.993946227376612E-4 0.0 0.0 0.0 0.001738168685896608 0.0 0.0 0.0 0.0 0.0 0.0 0.0 0.0 0.0 4.355571012753424E-4 0.0 1:1.0 2:1.0 10:1.0 11:1.0 12:1.0 13:1.0 20:1.0 24:1.0 25:1.0 26:1.0 30:1.0 31:1.0 32:1.0 33:1.0 41:1.0 42:1.0 44:1.0 51:1.0 55:1.0 56:1.0 57:1.0 81:1.0 88:1.0 92:1.0 93:1.0 101:1.0 102:1.0 103:1.0 104:1.0 105:1.0 111:1.0 115:1.0 116:1.0 117:1.0 126:1.0 127:1.0 128:1.0 129:1.0 136:1.0 140:1.0 141:1.0 142:1.0 150:1.0 152:1.0 179:1.0 220:1.0 237:1.0 274:1.0 419:1.0 420:1.0 424:1.0 427:1.0 428:1.0 429:1.0 434:1.0 435:1.0 436:1.0 437:1.0 444:1.0 445:1.0 446:1.0 453:1.0 455:1.0 474:1.0 475:1.0 476:1.0 477:1.0 483:1.0 484:1.0 485:1.0 488:1.0 489:1.0 490:1.0 491:1.0 497:1.0 498:1.0 499:1.0 546:1.0 567:1.0 604:1.0 614:1.0 791:1.0 808:1.0 886:1.0 937:1.0 1015:1.0 1017:1.0 1045:1.0 1178:1.0 1289:1.0 2072:1.0 2599:1.0 2603:1.0 2807:1.0 2903:1.0 2972:1.0 2976:1.0 3499:1.0 3500:1.0 3501:1.0 3502:1.0 3503:1.0 3504:1.0 3505:1.0 3506:1.0 3507:1.0 3508:1.0 3509:1.0 3510:1.0 3511:1.0 3512:1.0 3513:1.0 3514:1.0 3515:1.0 3516:1.0 3517:1.0 3518:1.0 3519:1.0 3520:1.0 3521:1.0 3522:1.0 3774:1.0 3775:1.0 3776:1.0 3777:1.0 3778:1.0 3779:1.0 3780:1.0 3781:1.0 3782:1.0 3783:1.0 3784:1.0 3785:1.0 3786:1.0 3787:1.0 3788:1.0 3789:1.0 3790:1.0 3791:1.0 3792:1.0 3793:1.0 3794:1.0 3795:1.0 3796:1.0 
0.0 0.0 0.0 0.0 0.0030788349238727174 0.0 0.0 0.0 0.0 0.005033304467732088 0.0 0.0 0.0 0.0 0.0 0.0 0.0 0.0 0.0 0.0 0.0 0.0 0.0 7.035224901696266E-5 0.0 0.006004597025880176 0.0 0.0 0.0 0.0 0.0 0.0 0.0 0.0 0.0 1:1.0 2:1.0 11:1.0 13:1.0 14:1.0 17:1.0 20:1.0 25:1.0 30:1.0 31:1.0 32:1.0 33:1.0 42:1.0 44:1.0 45:1.0 51:1.0 56:1.0 62:1.0 63:1.0 72:1.0 73:1.0 74:1.0 75:1.0 81:1.0 86:1.0 92:1.0 93:1.0 102:1.0 103:1.0 104:1.0 105:1.0 111:1.0 116:1.0 127:1.0 129:1.0 130:1.0 141:1.0 150:1.0 152:1.0 179:1.0 187:1.0 198:1.0 201:1.0 217:1.0 225:1.0 226:1.0 227:1.0 242:1.0 245:1.0 251:1.0 252:1.0 260:1.0 261:1.0 275:1.0 277:1.0 306:1.0 320:1.0 321:1.0 328:1.0 329:1.0 408:1.0 420:1.0 427:1.0 429:1.0 435:1.0 436:1.0 437:1.0 444:1.0 446:1.0 453:1.0 454:1.0 455:1.0 457:1.0 464:1.0 466:1.0 467:1.0 468:1.0 475:1.0 476:1.0 477:1.0 483:1.0 485:1.0 489:1.0 490:1.0 491:1.0 497:1.0 499:1.0 503:1.0 508:1.0 510:1.0 514:1.0 515:1.0 517:1.0 520:1.0 522:1.0 523:1.0 524:1.0 529:1.0 530:1.0 534:1.0 536:1.0 543:1.0 548:1.0 550:1.0 553:1.0 557:1.0 559:1.0 594:1.0 685:1.0 1294:1.0 1339:1.0 2451:1.0 2454:1.0 3340:1.0 3917:1.0 3918:1.0 3919:1.0 3920:1.0 3921:1.0 3922:1.0 3923:1.0 3924:1.0 3925:1.0 3926:1.0 3927:1.0 3928:1.0 3929:1.0 3930:1.0 3931:1.0 3932:1.0 3933:1.0 3934:1.0 3935:1.0 3936:1.0 3937:1.0 3938:1.0 3939:1.0 3940:1.0 3941:1.0 3942:1.0 3943:1.0 3944:1.0 3945:1.0 3946:1.0 
0.0 0.0 0.0 0.0 0.00209223466787869 1.348363683501514E-4 0.0 0.0 0.0011617785332291436 0.0010896173837079352 0.0 0.0 0.0 0.0 0.0022438072368978113 0.0 0.0 0.0 0.0 0.0012424174245555069 0.0 0.0 0.0 0.0011280497350547739 0.002811300156926656 0.0 0.0 4.0220128273164385E-4 0.0 0.0 0.0 0.0 0.0 0.0012265020540428687 0.0 1:1.0 2:1.0 10:1.0 11:1.0 13:1.0 17:1.0 20:1.0 24:1.0 25:1.0 26:1.0 30:1.0 31:1.0 32:1.0 33:1.0 41:1.0 42:1.0 44:1.0 45:1.0 51:1.0 55:1.0 56:1.0 57:1.0 62:1.0 63:1.0 71:1.0 72:1.0 73:1.0 74:1.0 75:1.0 81:1.0 85:1.0 86:1.0 87:1.0 92:1.0 93:1.0 102:1.0 103:1.0 104:1.0 105:1.0 111:1.0 116:1.0 126:1.0 127:1.0 129:1.0 140:1.0 141:1.0 142:1.0 150:1.0 152:1.0 179:1.0 187:1.0 217:1.0 225:1.0 226:1.0 242:1.0 252:1.0 253:1.0 321:1.0 343:1.0 360:1.0 377:1.0 396:1.0 400:1.0 408:1.0 411:1.0 419:1.0 420:1.0 427:1.0 428:1.0 429:1.0 434:1.0 435:1.0 436:1.0 437:1.0 441:1.0 444:1.0 445:1.0 446:1.0 452:1.0 453:1.0 454:1.0 455:1.0 464:1.0 465:1.0 466:1.0 474:1.0 475:1.0 476:1.0 477:1.0 479:1.0 483:1.0 484:1.0 485:1.0 488:1.0 489:1.0 490:1.0 491:1.0 497:1.0 498:1.0 499:1.0 591:1.0 594:1.0 764:1.0 808:1.0 1017:1.0 1039:1.0 1339:1.0 1438:1.0 1445:1.0 1542:1.0 1982:1.0 1991:1.0 2153:1.0 2388:1.0 3947:1.0 3948:1.0 3949:1.0 3950:1.0 3951:1.0 3952:1.0 3953:1.0 3954:1.0 3955:1.0 3956:1.0 3957:1.0 3958:1.0 3959:1.0 3960:1.0 3961:1.0 3962:1.0 3963:1.0 3964:1.0 3965:1.0 3966:1.0 3967:1.0 3968:1.0 3969:1.0 3970:1.0 3971:1.0 3972:1.0 3973:1.0 3974:1.0 3975:1.0 3976:1.0 
0.00908436147933211 0.0 0.0 0.0 0.0 0.0 0.0 2.173681138604966E-5 0.0 0.0 0.0 0.0 4.56349723417912E-4 0.0 0.0 0.0021437200629432353 0.0 0.0 0.0 0.0 0.0024467049528707524 0.0 0.0 0.0 0.0 0.0 0.0 0.0 0.0 0.0 0.0 0.0 0.0 0.0 0.0 1:1.0 2:1.0 11:1.0 13:1.0 14:1.0 17:1.0 20:1.0 22:1.0 25:1.0 31:1.0 33:1.0 41:1.0 42:1.0 44:1.0 45:1.0 51:1.0 53:1.0 55:1.0 56:1.0 57:1.0 58:1.0 63:1.0 71:1.0 72:1.0 73:1.0 74:1.0 75:1.0 81:1.0 83:1.0 85:1.0 86:1.0 87:1.0 93:1.0 101:1.0 102:1.0 103:1.0 104:1.0 105:1.0 106:1.0 111:1.0 113:1.0 115:1.0 116:1.0 117:1.0 126:1.0 127:1.0 128:1.0 129:1.0 130:1.0 136:1.0 138:1.0 140:1.0 141:1.0 142:1.0 179:1.0 200:1.0 206:1.0 245:1.0 251:1.0 252:1.0 260:1.0 261:1.0 265:1.0 330:1.0 343:1.0 346:1.0 351:1.0 357:1.0 358:1.0 359:1.0 360:1.0 361:1.0 362:1.0 363:1.0 364:1.0 367:1.0 369:1.0 377:1.0 380:1.0 385:1.0 387:1.0 395:1.0 396:1.0 399:1.0 400:1.0 411:1.0 414:1.0 416:1.0 570:1.0 866:1.0 867:1.0 868:1.0 869:1.0 879:1.0 880:1.0 881:1.0 882:1.0 895:1.0 896:1.0 897:1.0 898:1.0 909:1.0 910:1.0 911:1.0 912:1.0 920:1.0 921:1.0 922:1.0 923:1.0 928:1.0 1024:1.0 1367:1.0 2276:1.0 3343:1.0 3529:1.0 3977:1.0 3978:1.0 3979:1.0 3980:1.0 3981:1.0 3982:1.0 3983:1.0 3984:1.0 3985:1.0 3986:1.0 3987:1.0 3988:1.0 3989:1.0 3990:1.0 3991:1.0 3992:1.0 3993:1.0 3994:1.0 3995:1.0 3996:1.0 3997:1.0 3998:1.0 3999:1.0 4000:1.0 4001:1.0 4002:1.0 4003:1.0 4004:1.0 4005:1.0 
